tree
version=v3
num_class=1
num_tree_per_iteration=1
label_index=0
max_feature_idx=12
objective=regression
feature_names=Column_0 Column_1 Column_2 Column_3 Column_4 Column_5 Column_6 Column_7 Column_8 Column_9 Column_10 Column_11 Column_12
feature_infos=[0.010959999999999999:88.976200000000006] [0:100] [0.73999999999999999:27.739999999999998] [0:1] [0.38500000000000001:0.871] [3.5609999999999999:8.7799999999999994] [2.8999999999999999:100] [1.1295999999999999:12.1265] [1:24] [187:711] [12.6:22] [0.32000000000000001:396.89999999999998] [1.98:37.969999999999999]
tree_sizes=1072 1104 1187 1184 1026 1108 1110 1189 1198 1118 1195 1198 1199 1198 1281 1286 1124 1123 1122 1118 1206 1205 1215 1204 1281 1221 1122 1285 1280 1210 1215 1199 1213 1207 1220 1132 1130 1210 1208 1217 1222 1294 1048 1217 1225 1132 1215 1211 1129 1212 1289 1290 1216 1222 1296 1200 1214 1308 1220 1226 1206 1225 1139 1223 1051 1300 1216 1218 1134 1211 1308 1300 1138 1057 1132 1212 1128 1212 1307 1308 1140 1221 1220 1210 1208 1221 1135 1051 1219 1215 1143 1222 1215 1298 1217 1304 1228 1318 1222 1215

Tree=0
num_leaves=12
num_cat=0
split_feature=12 5 12 0 12 7 12 9 6 5 8
split_gain=9611.64 3569.45 1600.79 802.961 797.281 199.435 153.526 141.735 122.185 41.1841 29.6573
threshold=9.9500000000000011 7.1070000000000002 15.065000000000001 5.7660950000000009 5.4400000000000004 4.190500000000001 20.000000000000004 302.00000000000006 93.100000000000009 6.2435000000000009 5.5000000000000009
decision_type=2 2 2 2 2 2 2 2 2 2 2
left_child=1 4 7 8 -1 -6 -5 -2 -4 -7 -9
right_child=2 -3 3 6 5 9 -8 10 -10 -11 -12
leaf_value=22.668888943872336 21.90938895434785 23.422164806773708 21.515427391461017 21.014722265284739 22.182500058104409 21.757888929403308 20.6801389331435 21.526746085303223 21.223576434838506 21.956161660795527 21.668727643633272
leaf_weight=24 20 29 26 24 36 20 32 28 32 22 31
leaf_count=24 20 29 26 24 36 20 32 28 32 22 31
internal_value=21.7821 22.4432 21.3334 21.0936 22.1649 22.0098 20.8235 21.6793 21.3544 21.8617 21.6013
internal_weight=0 131 193 114 102 78 56 79 58 42 59
internal_count=324 131 193 114 102 78 56 79 58 42 59
is_linear=0
shrinkage=1


Tree=1
num_leaves=12
num_cat=0
split_feature=12 5 4 12 0 12 10 0 7 10 2
split_gain=7785.62 2834.51 1405.64 630.761 466.671 330.564 152.711 142.306 160.04 106.133 29.5652
threshold=9.7550000000000026 7.1070000000000002 0.66350000000000009 5.4400000000000004 9.084990000000003 14.795000000000002 19.900000000000002 0.066260000000000013 4.190500000000001 17.950000000000003 10.300000000000002
decision_type=2 2 2 2 2 2 2 2 2 2 2
left_child=1 3 5 -1 -4 9 -7 -5 -9 -2 -11
right_child=2 -3 4 7 -6 6 -8 8 -10 10 -12
leaf_value=0.79811110987017564 0.12887429002495041 1.4760593813041163 -0.51246492408328892 0.045006432228030697 -1.0484222248196602 -0.18780351620912553 -0.50952428943581052 0.49883334987486405 0.11581473588943481 -0.21288330669586478 -0.0572374523009943
leaf_weight=24 21 29 33 31 32 25 36 24 20 26 23
leaf_count=24 21 29 33 31 32 25 36 24 20 26 23
internal_value=0 0.606593 -0.396142 0.351901 -0.776321 -0.207504 -0.377672 0.209113 0.324734 -0.0592152 -0.139825
internal_weight=0 128 196 99 65 131 61 75 44 70 49
internal_count=324 128 196 99 65 131 61 75 44 70 49
is_linear=0
shrinkage=0.1


Tree=2
num_leaves=13
num_cat=0
split_feature=12 5 4 0 5 12 12 10 0 0 9 8
split_gain=6314.13 2359.64 1099.83 393.917 393.159 249.495 199.824 123.696 117.071 99.389 86.6275 23.3578
threshold=9.9500000000000011 6.7970000000000006 0.66350000000000009 10.696700000000002 7.1940000000000008 14.795000000000002 5.9450000000000012 19.900000000000002 0.066260000000000013 5.7660950000000009 302.00000000000006 5.5000000000000009
decision_type=2 2 2 2 2 2 2 2 2 2 2 2
left_child=1 6 5 9 -3 10 -1 -7 -8 -4 -2 -12
right_child=2 4 3 -5 -6 7 8 -9 -10 -11 11 -13
leaf_value=0.51139389969408511 0.11393987292423845 0.83369723287495701 -0.34643948361277582 -1.0100793628692626 1.4315412207083269 -0.16902315890789033 -0.00011045364462288805 -0.45857185787624782 0.26668084076801807 -0.66169975936412817 -0.20655850133170253 -0.065533726662397387
leaf_weight=20 20 22 20 25 22 25 29 36 38 20 23 24
leaf_count=20 20 22 20 25 22 25 29 36 38 20 23 24
internal_value=0 0.53583 -0.363698 -0.698689 1.13262 -0.193586 0.234006 -0.339904 0.151204 -0.50407 -0.060371 -0.134546
internal_weight=0 131 193 65 44 128 87 61 67 40 67 47
internal_count=324 131 193 65 44 128 87 61 67 40 67 47
is_linear=0
shrinkage=0.1


Tree=3
num_leaves=13
num_cat=0
split_feature=12 5 7 5 12 4 0 11 0 5 10 2
split_gain=5120.92 1895.06 948.18 293.96 215.577 212.872 176.837 162.788 139.27 119.765 71.6334 28.1315
threshold=9.7550000000000026 6.7970000000000006 2.0044500000000007 7.1940000000000008 14.795000000000002 0.66350000000000009 10.696700000000002 388.15000000000003 0.66008000000000011 6.4660000000000011 17.950000000000003 10.300000000000002
decision_type=2 2 2 2 2 2 2 2 2 2 2 2
left_child=1 7 5 -3 10 -2 -7 -1 -6 -9 -4 -12
right_child=2 3 4 -5 8 6 -8 9 -10 -11 11 -13
leaf_value=0.42675042507740168 -0.34474630996584898 0.76531963121323354 0.11154335919945013 1.2883870818398215 -0.14815561899117061 -0.55321291341231427 -0.9338695629783299 0.024385209458892068 -0.46355735766036177 0.32536904081702234 -0.18060859934641765 -0.030471036870342989
leaf_weight=26 20 21 21 22 28 26 23 39 28 20 26 24
leaf_count=26 20 21 21 22 28 26 23 39 28 20 26 24
internal_value=0 0.491954 -0.321276 1.03294 -0.159155 -0.619673 -0.731888 0.218281 -0.305856 0.126414 -0.0434467 -0.108543
internal_weight=0 128 196 43 127 69 49 85 56 59 71 50
internal_count=324 128 196 43 127 69 49 85 56 59 71 50
is_linear=0
shrinkage=0.1


Tree=4
num_leaves=11
num_cat=0
split_feature=12 5 12 4 12 0 7 10 9 5
split_gain=4147.95 1539.43 791.565 386.172 380.403 162.407 95.7811 86.0614 55.3452 28.6877
threshold=9.7550000000000026 7.1070000000000002 15.065000000000001 0.65100000000000013 5.4400000000000004 10.696700000000002 4.4582500000000005 19.900000000000002 302.00000000000006 6.0645000000000016
decision_type=2 2 2 2 2 2 2 2 2 2
left_child=1 4 8 7 -1 -5 -6 -4 -2 -10
right_child=2 -3 3 5 6 -7 -8 -9 9 -11
leaf_value=0.60158269094924144 0.087823051036823363 1.083517098426819 -0.13651892280578612 -0.49444194454699758 0.26179776346931855 -0.83461074542999281 0.035600723837239619 -0.38414513263851408 -0.16356885372237728 -0.025950447283685209
leaf_weight=24 21 29 25 32 36 25 39 32 33 28
leaf_count=24 21 29 25 32 36 25 39 32 33 28
internal_value=0 0.442759 -0.289149 -0.459588 0.255062 -0.643639 0.144175 -0.275537 -0.0521963 -0.1004
internal_weight=0 128 196 114 99 57 75 57 82 61
internal_count=324 128 196 114 99 57 75 57 82 61
is_linear=0
shrinkage=0.1


Tree=5
num_leaves=12
num_cat=0
split_feature=12 12 7 5 11 12 0 7 7 9 6
split_gain=3363.32 1340.28 612.592 496.683 158.546 149.002 77.4907 73.4657 67.8667 81.0544 38.7784
threshold=9.9500000000000011 4.3050000000000006 2.0044500000000007 6.7970000000000006 368.65500000000003 20.000000000000004 0.066260000000000013 4.190500000000001 4.3607000000000005 302.00000000000006 86.90000000000002
decision_type=2 2 2 2 2 2 2 2 2 2 2
left_child=1 -1 5 6 -4 -2 -3 -8 9 -6 -11
right_child=2 3 4 -5 8 -7 7 -9 -10 10 -12
leaf_value=1.1231345819575447 -0.33672431886196136 0.016962541714310646 -0.34191702668155943 0.62387622053976421 0.1463399495743215 -0.63315820449437854 0.3363405713811517 0.088910906917105126 -0.22567991065073084 -0.024329512084231661 -0.19981351532042027
leaf_weight=21 30 35 28 27 20 39 24 24 22 34 20
leaf_count=21 30 35 28 27 20 39 24 24 22 34 20
internal_value=0 0.39107 -0.265441 0.251313 -0.132543 -0.504274 0.130117 0.212626 -0.0714753 -0.0256307 -0.0893236
internal_weight=0 131 193 110 124 69 83 48 96 74 54
internal_count=324 131 193 110 124 69 83 48 96 74 54
is_linear=0
shrinkage=0.1


Tree=6
num_leaves=12
num_cat=0
split_feature=12 12 12 5 4 0 8 9 10 10 5
split_gain=2738.65 1028.38 595.795 393.096 270.685 118.018 61.3137 61.7534 60.4638 55.3814 13.6517
threshold=9.6050000000000022 4.3050000000000006 15.065000000000001 6.7970000000000006 0.65100000000000013 10.696700000000002 4.5000000000000009 298.00000000000006 17.700000000000006 19.900000000000002 6.0340000000000007
decision_type=2 2 2 2 2 2 2 2 2 2 2
left_child=1 -1 8 6 9 -6 7 -3 -2 -4 -10
right_child=2 3 4 -5 5 -7 -8 -9 10 -11 -12
leaf_value=1.0108211250532242 0.11309925997206434 0.16858734044691792 -0.11122283983230591 0.58568994426727305 -0.40374189075082545 -0.69372096252441406 0.23678451213505 -0.065760715001008732 -0.12113131982939584 -0.30986636073794216 -0.030003660845179716
leaf_weight=21 22 23 25 25 32 25 31 22 35 32 31
leaf_count=21 22 23 25 25 32 25 31 22 35 32 31
internal_value=0 0.374103 -0.225943 0.241716 -0.376834 -0.530926 0.128567 0.0540172 -0.0304719 -0.222742 -0.0783289
internal_weight=0 122 202 101 114 57 76 45 88 57 66
internal_count=324 122 202 101 114 57 76 45 88 57 66
is_linear=0
shrinkage=0.1


Tree=7
num_leaves=13
num_cat=0
split_feature=12 5 12 4 12 12 7 5 10 10 5 7
split_gain=2218.3 873.83 482.594 219.255 184.117 95.5965 65.7786 53.0503 64.9938 44.8589 28.1925 15.4724
threshold=9.6050000000000022 7.1070000000000002 15.065000000000001 0.65100000000000013 4.9400000000000004 19.530000000000005 4.190500000000001 6.0340000000000007 18.650000000000002 19.900000000000002 6.3015000000000008 3.3246000000000007
decision_type=2 2 2 2 2 2 2 2 2 2 2 2
left_child=1 4 7 9 -1 -5 -6 11 -9 -4 -8 -2
right_child=2 -3 3 5 6 -7 10 8 -10 -11 -12 -13
leaf_value=0.45605833142995833 -0.046088043026005228 0.81595817681016602 -0.10010055620223285 -0.32597607250014943 0.22408735666634338 -0.58827462602745406 -0.049885388499214534 0.18430073827505111 -0.064776708930730828 -0.2788797171218903 0.11397419037474764 -0.16219034022228285
leaf_weight=20 24 29 25 24 31 33 21 20 22 32 21 22
leaf_count=20 24 29 25 24 31 33 21 20 22 32 21 22
internal_value=0 0.336693 -0.203349 -0.33915 0.187245 -0.477833 0.113597 -0.0274247 0.0538316 -0.200468 0.0320444 -0.101615
internal_weight=0 122 202 114 93 57 73 88 42 57 42 46
internal_count=324 122 202 114 93 57 73 88 42 57 42 46
is_linear=0
shrinkage=0.1


Tree=8
num_leaves=13
num_cat=0
split_feature=12 12 12 9 0 4 5 6 10 4 6 6
split_gain=1805.39 583.762 564.829 286.208 182.646 128.856 99.7811 50.6908 48.7987 43.2117 36.5352 28.2394
threshold=7.7650000000000015 15.065000000000001 4.3050000000000006 264.50000000000006 5.3670950000000008 0.60100000000000009 6.1430000000000016 93.950000000000017 18.250000000000004 0.68600000000000005 68.450000000000017 65.350000000000009
decision_type=2 2 2 2 2 2 2 2 2 2 2 2
left_child=2 5 -1 -4 7 6 11 -3 -5 -6 -8 -2
right_child=1 4 3 8 9 -7 10 -9 -10 -11 -12 -13
leaf_value=0.84356748610734944 -0.076682232028326469 -0.092294825565430436 0.56178169541060929 0.20027418071031572 -0.32595032693251325 0.21635142005203911 0.16339410137046467 -0.28163141952111176 -0.0092940291762352006 -0.50342423442532036 -0.021009358196031482 -0.22416759904474023
leaf_weight=21 37 31 20 25 23 24 22 26 20 34 21 20
leaf_count=21 37 31 20 25 23 24 22 26 20 34 21 20
internal_value=0 -0.141897 0.392692 0.247025 -0.305235 0.00826866 -0.0416712 -0.178659 0.107133 -0.431812 0.0733366 -0.128431
internal_weight=0 238 86 65 114 124 100 57 45 57 43 57
internal_count=324 238 86 65 114 124 100 57 45 57 43 57
is_linear=0
shrinkage=0.1


Tree=9
num_leaves=12
num_cat=0
split_feature=5 12 10 0 12 8 5 6 6 4 0
split_gain=1480.12 728.427 210.66 186.154 162.896 63.3047 80.4042 42.0804 29.5193 22.2149 18.6028
threshold=6.8375000000000012 15.065000000000001 17.350000000000005 5.7660950000000009 5.9450000000000012 6.5000000000000009 6.1430000000000016 93.950000000000017 68.450000000000017 0.68600000000000005 0.082535000000000011
decision_type=2 2 2 2 2 2 2 2 2 2 2
left_child=1 4 -2 7 -1 6 10 -3 -8 -5 -6
right_child=2 3 -4 9 5 -7 8 -9 -10 -11 -12
leaf_value=0.28552081684271496 0.76486570775508889 -0.083065345763198795 0.33666966568540646 -0.34190493367967156 -0.19380388990754174 0.12058219977787564 0.11360899792052806 -0.25382727809526301 -0.038974010518618991 -0.47427062308415774 -0.073406004815390613
leaf_weight=24 20 31 27 21 21 35 32 27 21 32 33
leaf_count=24 20 31 27 21 21 35 32 27 21 32 33
internal_value=0 -0.0880411 0.518881 -0.286352 0.044564 0.00383895 -0.0343481 -0.162558 0.0531516 -0.421824 -0.120227
internal_weight=0 277 47 111 166 142 107 58 53 53 54
internal_count=324 277 47 111 166 142 107 58 53 53 54
is_linear=0
shrinkage=0.1


Tree=10
num_leaves=13
num_cat=0
split_feature=12 12 7 9 4 11 4 8 7 9 5 6
split_gain=1234.48 566.183 242.601 204.381 86.7995 82.6478 67.8598 63.6547 54.5725 49.8855 36.3444 16.8167
threshold=9.9500000000000011 4.3050000000000006 2.0044500000000007 264.50000000000006 0.66350000000000009 368.65500000000003 0.71550000000000014 4.5000000000000009 4.3607000000000005 302.00000000000006 6.3505000000000011 86.90000000000002
decision_type=2 2 2 2 2 2 2 2 2 2 2 2
left_child=1 -1 4 -3 -2 -4 -6 10 9 -7 -5 -11
right_child=2 3 5 7 6 8 -8 -9 -10 11 -12 -13
leaf_value=0.7127319549343416 -0.13555699024349452 0.3636898216460982 -0.22835009497191228 -0.11657167481524605 -0.48468454246010095 0.14293196912854911 -0.2468824849951835 0.15634070197875438 -0.17136965124783191 0.00085198855684960595 0.069476044958546049 -0.11470930846873671
leaf_weight=21 20 31 28 21 28 20 21 37 22 34 21 20
leaf_count=21 20 31 28 21 28 20 21 37 22 34 21 20
internal_value=0 0.236926 -0.160815 0.146091 -0.311114 -0.0771816 -0.382769 0.0607038 -0.0330907 0.0080192 -0.0235478 -0.0419485
internal_weight=0 131 193 110 69 124 49 79 96 74 42 54
internal_count=324 131 193 110 69 124 49 79 96 74 42 54
is_linear=0
shrinkage=0.1


Tree=11
num_leaves=13
num_cat=0
split_feature=5 12 4 12 0 8 10 9 2 0 5 12
split_gain=1037.78 490.892 119.31 114.002 77.3117 57.7356 71.7776 59.2761 21.2116 16.6388 16.116 5.66841
threshold=6.9830000000000014 14.795000000000002 0.6070000000000001 5.9450000000000012 12.938700000000003 6.5000000000000009 19.900000000000002 298.00000000000006 10.300000000000002 5.7660950000000009 6.1175000000000006 9.4600000000000026
decision_type=2 2 2 2 2 2 2 2 2 2 2 2
left_child=1 3 8 -1 9 6 7 11 -3 -4 -9 -5
right_child=-2 2 4 5 -6 -7 -8 10 -10 -11 -12 -13
leaf_value=0.23144551212037051 0.49098746392287707 -0.16965609626336531 -0.18244271172353854 0.1335333905892358 -0.46658177029873643 0.11694778971787956 -0.20027744293212893 -0.12993438501249663 -0.033715576150765023 -0.29920650357785433 -0.011442017989854019 0.059146252162754535
leaf_weight=27 38 22 26 21 21 36 20 22 24 23 24 20
leaf_count=27 38 22 26 21 21 36 20 22 24 23 24 20
internal_value=0 -0.0652361 -0.223837 0.0429857 -0.30605 0.00740233 -0.0294541 0.00981565 -0.0987306 -0.23725 -0.0681123 0.097247
internal_weight=0 286 116 170 70 143 107 87 46 49 46 41
internal_count=324 286 116 170 70 143 107 87 46 49 46 41
is_linear=0
shrinkage=0.1


Tree=12
num_leaves=13
num_cat=0
split_feature=5 12 10 0 6 5 5 6 0 6 7 5
split_gain=846.567 395.239 159.099 106.367 100.465 118.93 38.9821 29.9983 18.9949 16.6049 17.6138 13.9542
threshold=6.8375000000000012 15.065000000000001 17.350000000000005 5.7660950000000009 88.550000000000011 6.4660000000000011 6.0340000000000007 93.950000000000017 0.15092000000000003 69.550000000000011 5.2660000000000009 6.1835000000000013
decision_type=2 2 2 2 2 2 2 2 2 2 2 2
left_child=1 4 -2 7 5 6 8 -3 -1 10 -8 -5
right_child=2 3 -4 11 -6 -7 9 -9 -10 -11 -12 -13
leaf_value=-0.1707681749895629 0.60619055654853593 -0.051967305954425572 0.23406836059358388 -0.35999303450187048 0.23551646871935752 0.16833400441841648 0.10858080454170704 -0.19614559722184721 -0.045591535825621005 -0.068245785293124972 -0.021084689141505145 -0.25646319965953412
leaf_weight=27 20 31 27 30 21 33 20 27 22 21 22 23
leaf_count=27 20 31 27 30 21 33 20 27 22 21 22 23
internal_value=0 -0.0665836 0.392418 -0.212661 0.0310946 0.00148868 -0.0476711 -0.119085 -0.114566 0.00435859 0.0406608 -0.315065
internal_weight=0 277 47 111 166 145 112 58 49 63 42 53
internal_count=324 277 47 111 166 145 112 58 49 63 42 53
is_linear=0
shrinkage=0.1


Tree=13
num_leaves=13
num_cat=0
split_feature=12 2 9 12 10 4 6 0 12 5 0 9
split_gain=723.601 430.649 260.421 185.375 75.2664 70.5965 34.9665 29.2157 72.6874 25.135 10.5297 13.095
threshold=4.3050000000000006 3.9850000000000008 264.50000000000006 20.000000000000004 19.900000000000002 0.67500000000000016 36.000000000000007 3.5214800000000004 14.795000000000002 5.8705000000000007 0.22922500000000004 298.00000000000006
decision_type=2 2 2 2 2 2 2 2 2 2 2 2
left_child=-1 2 -2 4 6 -5 -3 -6 -9 -8 11 -11
right_child=1 3 -4 5 7 -7 9 8 -10 10 -12 -13
leaf_value=0.56766071603411727 0.5008103546642122 0.10592288163111166 0.027342772942322954 -0.14245415933143635 -0.18247402005485799 -0.3754884197161748 -0.12272384550422431 0.076528660083810485 -0.16442899514109857 0.027763489323357746 0.061719723757017744 -0.080366014369896488
leaf_weight=21 21 27 26 26 38 26 20 21 31 24 22 21
leaf_count=21 21 27 26 26 38 26 20 21 31 24 22 21
internal_value=0 -0.0393428 0.238892 -0.090425 -0.0474622 -0.258971 0.006508 -0.115825 -0.0671192 -0.0243449 0.00502196 -0.0226969
internal_weight=0 303 47 256 204 52 114 90 52 87 67 45
internal_count=324 303 47 256 204 52 114 90 52 87 67 45
is_linear=0
shrinkage=0.1


Tree=14
num_leaves=14
num_cat=0
split_feature=5 12 6 5 4 0 2 5 2 11 0 4 2
split_gain=588.322 299.247 122.629 121.955 75.9671 53.6357 34.6106 29.6816 19.7092 15.521 15.3059 14.3412 3.07654
threshold=7.2450000000000001 14.795000000000002 89.250000000000014 6.4660000000000011 0.6070000000000001 12.938700000000003 4.1000000000000005 6.0340000000000007 10.300000000000002 390.09000000000009 0.13570500000000002 0.69650000000000001 7.2250000000000005
decision_type=2 2 2 2 2 2 2 2 2 2 2 2 2
left_child=1 2 3 7 8 11 -5 10 -3 -9 -1 -6 -11
right_child=-2 4 -4 6 5 -7 -8 9 -10 12 -12 -13 -14
leaf_value=-0.16273041309221933 0.49926046729087831 -0.1309580091048371 0.27616734061390164 0.22057871084946853 -0.23318445157437098 -0.36173092439061122 0.060351574181446016 -0.066694439084015109 7.9878636946280804e-05 0.065610440671443934 -0.051718625453887161 -0.12386400603822299 0.010143873505294325
leaf_weight=23 22 22 20 26 21 21 28 22 24 20 27 28 20
leaf_count=23 22 22 20 26 21 21 28 22 24 20 27 28 20
internal_value=0 -0.03637 0.0422411 0.0140572 -0.162419 -0.22802 0.137498 -0.0454589 -0.0625904 0.000771107 -0.102784 -0.170716 0.0378772
internal_weight=0 302 186 166 116 70 54 112 46 62 50 49 40
internal_count=324 302 186 166 116 70 54 112 46 62 50 49 40
is_linear=0
shrinkage=0.1


Tree=15
num_leaves=14
num_cat=0
split_feature=12 2 9 11 12 11 10 6 6 7 0 5 12
split_gain=518.418 296.792 199.929 137.819 110.537 76.6672 63.2124 24.7241 17.2449 15.5754 26.6023 13.029 14.1319
threshold=4.3050000000000006 4.1000000000000005 264.50000000000006 139.56000000000003 20.000000000000004 348.40500000000003 19.900000000000002 36.000000000000007 98.000000000000014 2.1114000000000002 2.3735950000000003 6.3135000000000012 13.445000000000002
decision_type=2 2 2 2 2 2 2 2 2 2 2 2 2
left_child=-1 2 -2 -3 5 -5 7 -7 -6 -8 -11 12 -9
right_child=1 3 -4 4 8 6 9 11 -10 10 -12 -13 -14
leaf_value=0.48048439948331745 0.4204291390875976 -0.32452914340510253 0.025728071424545664 0.16123908188194036 -0.13926160491648173 0.089464949329312038 -0.19100561766397386 -0.10440727010942424 -0.2674167809032259 -0.16868099996989425 -0.019270038733688686 0.035431796312332155 0.0058868653717495147
leaf_weight=21 21 21 33 20 21 26 21 26 21 22 26 24 21
leaf_count=21 21 21 33 20 21 26 21 26 21 22 26 24 21
internal_value=0 -0.0333009 0.179223 -0.0793904 -0.0568118 -0.023725 -0.0460098 0.00603595 -0.203339 -0.119176 -0.0877501 -0.0245155 -0.0551269
internal_weight=0 303 54 249 228 186 166 97 42 69 48 71 47
internal_count=324 303 54 249 228 186 166 97 42 69 48 71 47
is_linear=0
shrinkage=0.1


Tree=16
num_leaves=12
num_cat=0
split_feature=12 2 9 4 10 12 12 11 7 5 0
split_gain=419.919 240.402 161.943 115.509 69.8988 59.3748 32.6741 44.7133 18.6905 16.7948 17.66
threshold=4.3050000000000006 4.1000000000000005 264.50000000000006 0.67500000000000016 20.950000000000003 19.530000000000005 9.9500000000000011 392.86500000000007 2.2085000000000004 5.7825000000000015 0.22922500000000004
decision_type=2 2 2 2 2 2 2 2 2 2 2
left_child=-1 2 -2 4 6 -5 7 -3 -8 -10 -11
right_child=1 3 -4 5 -6 -7 8 -9 9 10 -12
leaf_value=0.4324359517721903 0.37838622360002427 0.14707162264320586 0.023155264646717997 -0.10378594690135548 -0.1810640986111981 -0.30115592507300559 -0.11186959125377514 -0.031754644574790165 -0.094018689841032038 -0.031641373352280684 0.082695942168886025
leaf_weight=21 21 27 33 35 27 27 27 29 20 35 22
leaf_count=21 21 27 33 35 27 27 27 29 20 35 22
internal_value=0 -0.0299708 0.161301 -0.0714514 -0.0322335 -0.189737 -0.00711838 0.0544652 -0.0402788 -0.0151755 0.0124888
internal_weight=0 303 54 249 187 62 160 56 104 77 57
internal_count=324 303 54 249 187 62 160 56 104 77 57
is_linear=0
shrinkage=0.1


Tree=17
num_leaves=12
num_cat=0
split_feature=5 12 6 5 10 5 2 5 11 6 6
split_gain=348.104 153.352 101.278 57.842 46.5805 35.3227 24.9254 17.9894 12.9744 12.0865 10.9564
threshold=7.2450000000000001 15.065000000000001 89.550000000000011 6.4660000000000011 19.900000000000002 6.0005000000000015 4.1000000000000005 6.0340000000000007 393.59000000000009 57.900000000000006 95.750000000000014
decision_type=2 2 2 2 2 2 2 2 2 2 2
left_child=1 2 3 7 -3 -6 -5 9 -9 -1 -7
right_child=-2 4 -4 6 5 10 -8 8 -10 -11 -12
leaf_value=-0.038724247712109777 0.3840380804105239 -0.022267201827729451 0.23991569964215162 0.15726479549820607 -0.22997349451940796 -0.14856476783752443 0.02242541999138635 -0.044864777289330963 0.046184231906101623 -0.13655868347572245 -0.043891937136650086
leaf_weight=28 22 34 20 26 39 20 29 34 29 23 20
leaf_count=28 22 34 20 26 39 20 29 34 29 23 20
internal_value=0 -0.0279763 0.0271235 0.00194103 -0.120134 -0.162254 0.0861677 -0.0386946 -0.00295333 -0.0828457 -0.0962284
internal_weight=0 302 189 169 113 79 55 114 63 51 40
internal_count=324 302 189 169 113 79 55 114 63 51 40
is_linear=0
shrinkage=0.1


Tree=18
num_leaves=12
num_cat=0
split_feature=12 10 5 11 11 7 9 7 6 8 12
split_gain=301.539 166.835 101.697 50.8302 66.8922 55.5413 49.7711 31.836 53.8187 12.7231 6.08804
threshold=4.3050000000000006 19.900000000000002 6.5205000000000011 139.56000000000003 378.88000000000005 1.7760500000000004 264.50000000000006 5.6679500000000012 63.900000000000013 4.5000000000000009 12.770000000000001
decision_type=2 2 2 2 2 2 2 2 2 2 2
left_child=-1 2 7 -3 -5 -6 -4 8 -2 -7 -10
right_child=1 3 6 4 5 9 -8 -9 10 -11 -12
leaf_value=0.36644655920210339 0.11831378594040871 -0.258119198679924 0.27613298360790528 0.036831321893259883 -0.26532477814218275 -0.14304959520697594 0.073987134700191443 -0.090851543942200297 -0.082972744958741337 -0.042532879596247394 -0.014096565361162931
leaf_weight=21 35 20 21 32 23 20 29 35 21 34 33
leaf_count=21 35 20 21 32 23 20 29 35 21 34 33
internal_value=0 -0.0253973 0.0384942 -0.111576 -0.0846879 -0.135189 0.158888 -0.0100519 0.0217232 -0.0797613 -0.0408817
internal_weight=0 303 174 129 109 77 50 124 89 54 54
internal_count=324 303 174 129 109 77 50 124 89 54 54
is_linear=0
shrinkage=0.1


Tree=19
num_leaves=12
num_cat=0
split_feature=12 2 9 4 7 10 4 7 6 7 2
split_gain=244.246 141.824 98.6027 77.2355 49.2361 56.4423 37.8836 24.968 22.3578 17.422 5.9911
threshold=4.3050000000000006 4.1000000000000005 264.50000000000006 0.67500000000000016 1.8148500000000001 19.900000000000002 0.72900000000000009 5.6679500000000012 71.300000000000011 2.5136500000000006 9.7950000000000017
decision_type=2 2 2 2 2 2 2 2 2 2 2
left_child=-1 2 -2 4 -3 7 -5 8 10 -7 -6
right_child=1 3 -4 6 5 9 -8 -9 -10 -11 -12
leaf_value=0.32980189813034877 0.29344700298139026 0.11787524284286932 0.016258916879693667 -0.22009772087846483 0.11825879812240601 -0.18672098355988664 -0.062443485248971864 -0.07642518085117142 -0.026905033681477009 -0.074745118888941683 0.042722004137578463
leaf_weight=21 21 22 33 35 21 24 27 30 36 33 21
leaf_count=21 21 22 33 35 21 24 27 30 36 33 21
internal_value=0 -0.0228576 0.124054 -0.054718 -0.0226491 -0.0413857 -0.151442 0.00110426 0.0309233 -0.121893 0.0804904
internal_weight=0 303 54 249 187 165 62 108 78 57 42
internal_count=324 303 54 249 187 165 62 108 78 57 42
is_linear=0
shrinkage=0.1


Tree=20
num_leaves=13
num_cat=0
split_feature=5 11 12 7 10 7 6 7 0 6 5 11
split_gain=207.067 92.4834 81.9671 94.09 43.2192 22.1006 18.0276 23.3744 21.9505 16.3642 11.7994 7.91063
threshold=7.2450000000000001 139.56000000000003 20.000000000000004 1.8148500000000001 17.850000000000005 5.8718000000000012 73.450000000000017 4.4582500000000005 4.2418500000000003 68.450000000000017 5.6295000000000011 394.22500000000008
decision_type=2 2 2 2 2 2 2 2 2 2 2 2
left_child=1 -1 3 -3 5 9 7 -6 -8 -5 -4 -9
right_child=-2 2 10 4 6 -7 8 11 -10 -11 -12 -13
leaf_value=-0.22400560563518887 0.29619319723411042 0.21835017909428905 -0.084748925556513408 0.15986732528968292 0.053350355414052808 -0.014503962983345164 -0.12597809945409363 -0.099676169880798887 0.0020266577601432802 0.045494720982066521 -0.19087666273117065 -0.014785800728461015
leaf_weight=21 22 21 22 22 36 29 37 21 21 29 20 23
leaf_count=21 22 21 22 22 36 29 37 21 21 29 20 23
internal_value=0 -0.021577 -0.00644887 0.016192 -0.003282 0.0551977 -0.0371833 -0.00640825 -0.0796315 0.0948319 -0.135286 -0.0553017
internal_weight=0 302 281 239 218 80 138 80 58 51 42 44
internal_count=324 302 281 239 218 80 138 80 58 51 42 44
is_linear=0
shrinkage=0.1


Tree=21
num_leaves=13
num_cat=0
split_feature=12 2 9 4 7 10 7 2 8 4 7 5
split_gain=175.368 101.839 73.354 59.6214 40.7632 37.5713 34.7814 20.0606 21.2348 14.7368 12.2085 9.87735
threshold=4.3050000000000006 4.8950000000000005 264.50000000000006 0.67500000000000016 1.8148500000000001 19.900000000000002 1.9590500000000002 10.300000000000002 5.5000000000000009 0.71550000000000014 2.5136500000000006 6.4105000000000016
decision_type=2 2 2 2 2 2 2 2 2 2 2 2
left_child=-1 2 -2 4 -3 7 9 8 -6 -5 -7 -4
right_child=1 3 11 6 5 10 -8 -9 -10 -11 -12 -13
leaf_value=0.2794564339110539 0.24160036343065175 0.10798034261573444 -0.035427186656743291 -0.24709784358739856 -0.088394543957529659 -0.15642748698592188 -0.024747048430144789 0.06639002285176708 0.022660995317467802 -0.12849367227066646 -0.062691487654140496 0.06395769039168954
leaf_weight=21 22 22 20 20 33 24 20 31 36 22 33 20
leaf_count=21 22 22 20 20 33 24 20 31 36 22 33 20
internal_value=0 -0.0193683 0.0949325 -0.0487735 -0.0195008 -0.0373644 -0.133286 -0.000431334 -0.0304525 -0.184972 -0.102159 0.0142653
internal_weight=0 303 62 241 179 157 62 100 69 42 57 40
internal_count=324 303 62 241 179 157 62 100 69 42 57 40
is_linear=0
shrinkage=0.1


Tree=22
num_leaves=13
num_cat=0
split_feature=5 11 12 7 9 10 12 7 5 5 6 0
split_gain=143.634 68.8422 60.4312 81.2352 28.5983 23.4006 17.3309 15.5557 14.3008 10.2017 9.91237 11.3993
threshold=7.2450000000000001 139.56000000000003 20.000000000000004 1.8148500000000001 237.00000000000003 17.700000000000006 9.0850000000000026 5.8718000000000012 5.8290000000000015 5.6295000000000011 88.100000000000009 0.22922500000000004
decision_type=2 2 2 2 2 2 2 2 2 2 2 2
left_child=1 -1 3 -3 -5 7 -7 -6 -8 -4 11 -10
right_child=-2 2 9 4 5 6 8 -9 10 -11 -12 -13
leaf_value=-0.19262021136071003 0.24668854678219018 0.20236335265494529 -0.068552147563208238 0.10736107146367431 0.086111150567810379 -0.094396084527938795 -0.081080909725278622 -0.016716684746955122 -0.014118308210387254 -0.16723333403468132 -0.046426974679343404 0.081453849002718931
leaf_weight=21 22 21 22 21 31 39 25 28 26 20 24 24
leaf_count=21 22 21 22 21 31 39 25 28 26 20 24 24
internal_value=0 -0.0179707 -0.00491859 0.0145217 -0.00357312 -0.0153986 -0.0379341 0.0373115 -0.0156915 -0.115543 0.00639958 0.0317563
internal_weight=0 302 281 239 218 197 138 59 99 42 74 50
internal_count=324 302 281 239 218 197 138 59 99 42 74 50
is_linear=0
shrinkage=0.1


Tree=23
num_leaves=13
num_cat=0
split_feature=12 4 10 4 4 7 7 6 7 11 12 4
split_gain=128.285 79.5726 47.731 41.5592 29.9312 31.4729 29.5873 16.0591 16.042 13.675 13.4792 10.7295
threshold=4.3050000000000006 0.67500000000000016 20.950000000000003 0.59100000000000008 0.51250000000000007 5.6679500000000012 1.9590500000000002 65.350000000000009 4.3607000000000005 392.68500000000006 7.7650000000000015 0.71550000000000014
decision_type=2 2 2 2 2 2 2 2 2 2 2 2
left_child=-1 2 3 4 5 7 11 8 -2 -6 -7 -3
right_child=1 6 -4 -5 9 10 -8 -9 -10 -11 -12 -13
leaf_value=0.23901591109377995 0.18495642848312854 -0.21828150644898417 -0.1108992600749279 0.12900487064863697 -0.10345410781984146 0.032932332537270022 -0.017493332144804301 0.022885064421487706 0.058299354980699714 -0.0098271951461449663 -0.075743088692426686 -0.11707960612733255
leaf_weight=21 20 20 29 33 26 21 20 28 20 39 25 22
leaf_count=21 20 20 29 33 26 21 20 28 20 39 25 22
internal_value=0 -0.0165655 0.00942703 0.0258868 0.00687616 0.0377535 -0.117601 0.0809691 0.121628 -0.047278 -0.0261304 -0.165271
internal_weight=0 303 241 212 179 114 62 68 40 65 46 42
internal_count=324 303 241 212 179 114 62 68 40 65 46 42
is_linear=0
shrinkage=0.1


Tree=24
num_leaves=14
num_cat=0
split_feature=12 2 7 0 7 7 6 12 5 1 11 6 0
split_gain=103.911 66.2781 50.7351 48.3943 63.5096 39.4343 25.984 23.1107 26.2925 9.52056 8.94954 8.28199 10.8551
threshold=4.3050000000000006 4.8950000000000005 6.4726000000000008 15.37645 1.6206000000000003 2.0875500000000007 36.000000000000007 9.4600000000000026 5.7440000000000007 16.250000000000004 372.41500000000002 90.350000000000009 0.22922500000000004
decision_type=2 2 2 2 2 2 2 2 2 2 2 2 2
left_child=-1 2 9 4 -3 -6 -7 -8 -9 -2 -10 12 -12
right_child=1 3 -4 -5 5 6 7 8 10 -11 11 -13 -14
leaf_value=0.21511430641015372 0.092113378502073739 0.14028519104634013 -0.053788743847981095 -0.1875908921658993 -0.13572085744172738 0.072440248489379896 -0.13232814790681005 -0.12484289698302747 -0.058326151818037034 0.18733522295951843 -0.0048113157073485444 -0.036567601845377967 0.084172924092182744
leaf_weight=21 21 21 20 20 37 25 22 20 20 21 29 21 26
leaf_count=21 21 21 20 20 37 25 22 20 20 21 29 21 26
internal_value=0 -0.0149089 0.0773007 -0.0386309 -0.0251504 -0.0425211 -0.0213653 -0.0383591 -0.0205374 0.139724 0.00119297 0.0168559 0.037254
internal_weight=0 303 62 241 221 200 163 138 116 42 96 76 55
internal_count=324 303 62 241 221 200 163 138 116 42 96 76 55
is_linear=0
shrinkage=0.1


Tree=25
num_leaves=13
num_cat=0
split_feature=5 3 11 12 6 9 10 9 6 2 11 6
split_gain=91.3555 47.431 38.3997 34.8201 21.5757 22.5603 16.6569 13.9974 10.8589 15.269 9.89524 17.542
threshold=7.2450000000000001 1.0000000180025095e-35 139.56000000000003 20.000000000000004 96.850000000000009 237.00000000000003 16.700000000000006 274.50000000000006 90.350000000000009 10.300000000000002 387.17000000000002 54.100000000000009
decision_type=2 2 2 2 2 2 2 2 2 2 2 2
left_child=1 2 -1 4 5 -4 -7 -8 9 10 -9 -12
right_child=-2 -3 3 -5 -6 6 7 8 -10 -11 11 -13
leaf_value=-0.15549485683441164 0.19673739969730378 0.12705051184377888 0.087946761931691861 -0.10331935945310092 0.094281318512829879 0.040187732513461798 -0.11015251962976023 -0.092354466088793497 -0.090758986845612524 0.045705885959394052 0.056565221106367448 -0.067411140045151127
leaf_weight=21 22 22 21 38 22 35 22 22 20 33 21 25
leaf_count=21 22 22 21 38 22 35 22 22 20 33 21 25
internal_value=0 -0.0143319 -0.0254405 -0.0148955 0.000308568 -0.0100804 -0.0216454 -0.0367794 -0.0234388 -0.010108 -0.0371942 -0.0108132
internal_weight=0 302 280 259 221 199 178 143 121 101 68 46
internal_count=324 302 280 259 221 199 178 143 121 101 68 46
is_linear=0
shrinkage=0.1


Tree=26
num_leaves=12
num_cat=0
split_feature=12 4 10 7 10 7 9 8 7 6 9
split_gain=76.213 55.7522 34.687 28.2506 30.0855 23.013 13.9092 14.1368 13.2396 20.48 11.7109
threshold=4.3050000000000006 0.67500000000000016 15.250000000000002 1.8148500000000001 19.900000000000002 1.9071500000000003 298.00000000000006 4.5000000000000009 5.4009000000000009 65.350000000000009 355.00000000000006
decision_type=2 2 2 2 2 2 2 2 2 2 2
left_child=-1 2 -2 -4 6 -3 8 -8 9 -5 -6
right_child=1 5 3 4 10 -7 7 -9 -10 -11 -12
leaf_value=0.18422711633500599 0.12868622514334591 -0.14575709970667958 0.10724878367923557 0.13559073948611816 -0.1344947019946717 -0.020677953089276949 -0.073303512763231993 0.019643642629186314 -0.026272797052349361 0.0097033785123910241 -0.041443965250724246
leaf_weight=21 22 38 21 24 21 24 30 36 21 28 38
leaf_count=21 22 38 21 24 21 24 30 36 21 28 38
internal_value=0 -0.0127682 0.00898868 -0.00303573 -0.0147326 -0.0973394 0.0106634 -0.0226051 0.0407417 0.0678052 -0.0745637
internal_weight=0 303 241 219 198 62 139 66 73 52 59
internal_count=324 303 241 219 198 62 139 66 73 52 59
is_linear=0
shrinkage=0.1


Tree=27
num_leaves=14
num_cat=0
split_feature=12 6 10 7 0 10 5 11 7 7 12 6 11
split_gain=67.087 247.596 62.8146 37.6212 34.1074 26.1647 11.5066 17.7843 10.1294 14.7736 10.9908 5.74637 5.06079
threshold=9.5150000000000023 83.100000000000009 19.050000000000004 6.5450500000000007 15.37645 17.500000000000004 6.5860000000000012 317.31000000000006 1.9071500000000003 5.4713000000000003 16.580000000000002 65.350000000000009 393.59000000000009
decision_type=2 2 2 2 2 2 2 2 2 2 2 2 2
left_child=1 2 3 5 6 -1 7 -2 -9 10 11 -10 -13
right_child=4 -3 -4 -5 -6 -7 -8 8 9 -11 -12 12 -14
leaf_value=0.1626336347149766 -0.11151539958689526 0.38064745768904684 -0.14990453797837963 -0.079019446205347788 -0.15872523546218875 0.023692324509223303 0.050375501215457918 -0.069449146742258092 0.029869683490445217 -0.081167797371745121 0.065948653367481055 0.0042597941309213639 -0.06602745822497777
leaf_weight=23 23 20 23 20 20 33 20 29 24 20 28 20 21
leaf_count=23 23 20 23 20 20 33 20 29 24 20 28 20 21
internal_value=0 0.0597242 -0.00510882 0.0387109 -0.0346692 0.0807575 -0.0212577 -0.0299405 -0.0167277 -0.00319736 0.0135705 -0.00899244 -0.031741
internal_weight=0 119 99 76 205 56 185 165 142 113 93 65 41
internal_count=324 119 99 76 205 56 185 165 142 113 93 65 41
is_linear=0
shrinkage=0.1


Tree=28
num_leaves=14
num_cat=0
split_feature=12 6 10 7 0 2 7 9 6 5 5 4 7
split_gain=54.3405 200.553 50.8799 30.4732 27.627 24.1525 9.47102 20.0846 8.43995 7.11175 9.72636 13.7173 4.38977
threshold=9.5150000000000023 83.100000000000009 19.050000000000004 6.5450500000000007 15.37645 4.8950000000000005 3.9056500000000005 400.00000000000006 65.350000000000009 5.8705000000000007 6.1480000000000006 0.65100000000000013 2.7908500000000003
decision_type=2 2 2 2 2 2 2 2 2 2 2 2 2
left_child=1 2 3 5 6 -1 7 12 -8 -9 -11 -12 -2
right_child=4 -3 -4 -5 -6 -7 8 9 -10 10 11 -13 -14
leaf_value=0.13165788756262872 0.014845601739361884 0.34258271612226965 -0.13491408060223836 -0.071117502544075256 -0.14285271152853968 -0.00044865360856056222 -0.018936017439093279 -0.069688186749364389 -0.10775897301733495 0.043306666931935717 0.019023031705901736 -0.092762941381205694 0.078280237441261613
leaf_weight=31 20 20 23 20 20 25 23 33 20 21 21 23 24
leaf_count=31 20 20 23 20 20 25 23 33 20 21 21 23 24
internal_value=0 0.0537518 -0.00459794 0.0348398 -0.0312022 0.0726818 -0.0191319 -0.00668096 -0.060249 -0.031881 -0.0126865 -0.0394105 0.0494463
internal_weight=0 119 99 76 205 56 185 142 43 98 65 44 44
internal_count=324 119 99 76 205 56 185 142 43 98 65 44 44
is_linear=0
shrinkage=0.1


Tree=29
num_leaves=13
num_cat=0
split_feature=12 4 7 5 11 4 6 10 6 0 0 10
split_gain=49.0491 35.7185 23.839 27.4529 17.9005 17.7451 17.6988 15.6711 13.1778 11.9813 9.44238 12.5836
threshold=4.3050000000000006 0.67500000000000016 1.7962000000000002 6.4320000000000013 368.65500000000003 0.72900000000000009 73.450000000000017 16.700000000000006 70.300000000000026 0.29718500000000009 0.13570500000000002 18.250000000000004
decision_type=2 2 2 2 2 2 2 2 2 2 2 2
left_child=-1 2 -2 4 -4 -3 10 -5 -9 -8 11 -6
right_child=1 5 3 7 6 -7 9 8 -10 -11 -12 -13
leaf_value=0.14779324162574042 0.11171975925564766 -0.12492363516773497 -0.1042811503012975 0.12128366827964783 0.042310287210751668 -0.017024186943416241 -0.093926070153247568 0.070506242446770714 -0.041648922339081768 0.0047390203259419653 0.056952093376053704 -0.06347707671963651
leaf_weight=21 20 35 24 22 22 27 32 22 20 20 36 23
leaf_count=21 20 35 24 22 22 27 32 22 20 20 36 23
internal_value=0 -0.0102431 0.00717146 -0.00228992 -0.0247928 -0.0779352 -0.0104491 0.0529125 0.017099 -0.055978 0.0187794 -0.0117588
internal_weight=0 303 241 221 157 62 133 64 42 52 81 45
internal_count=324 303 241 221 157 62 133 64 42 52 81 45
is_linear=0
shrinkage=0.1


Tree=30
num_leaves=13
num_cat=0
split_feature=5 7 9 9 9 7 8 5 0 0 4 4
split_gain=41.5934 44.7808 19.2655 19.8518 18.195 10.4367 9.71041 10.4362 10.7422 9.15581 7.77101 6.65647
threshold=7.2450000000000001 1.5175000000000003 225.00000000000003 274.50000000000006 282.50000000000006 2.0875500000000007 4.5000000000000009 6.1705000000000014 0.22922500000000004 0.21285000000000001 0.43745000000000006 0.69650000000000001
decision_type=2 2 2 2 2 2 2 2 2 2 2 2
left_child=1 -1 -3 -4 -5 11 10 8 -8 -9 -7 -6
right_child=-2 2 3 4 5 6 7 9 -10 -11 -12 -13
leaf_value=0.13118890396186286 0.13274918781085449 0.074392023980617533 -0.10122280851937832 0.0693272465331988 -0.098216513943459316 -0.0015776475181891805 -0.0075910869675378011 0.021993104368448257 0.088045868601488039 -0.059714387729763986 -0.080363797968734177 -0.026447144694005449
leaf_weight=21 22 20 32 22 28 21 24 24 23 32 31 24
leaf_count=21 22 20 32 22 28 21 24 24 23 32 31 24
internal_value=0 -0.00967047 -0.0201973 -0.0274456 -0.0171361 -0.0263254 -0.0133198 0.0044645 0.03921 -0.0246969 -0.0485463 -0.0650922
internal_weight=0 302 281 261 229 207 155 103 47 56 52 52
internal_count=324 302 281 261 229 207 155 103 47 56 52 52
is_linear=0
shrinkage=0.1


Tree=31
num_leaves=13
num_cat=0
split_feature=0 7 10 11 5 7 6 6 12 0 5 5
split_gain=37.5138 79.6 69.2196 32.2249 10.5793 16.9483 15.9557 15.0839 13.1269 7.87072 11.0813 5.96579
threshold=15.37645 1.6206000000000003 15.000000000000002 354.99500000000006 6.0340000000000007 3.0922000000000005 71.300000000000011 88.100000000000009 4.9400000000000004 0.10809000000000002 5.7580000000000009 6.3505000000000011
decision_type=2 2 2 2 2 2 2 2 2 2 2 2
left_child=1 -1 -3 -4 9 7 8 -6 -7 -5 -11 -10
right_child=-2 2 3 4 5 6 -8 -9 11 10 -12 -13
leaf_value=0.19193089313127779 -0.13266154870390892 0.160690782510716 -0.11263757239265199 -0.081282005007736968 0.12541149921715261 -0.05964223437366032 -0.086252697006515833 0.006667372957884294 -0.0034023311705543447 -0.063103361457586299 0.027746197395026685 0.060647267955496457
leaf_weight=22 20 23 33 26 20 21 23 23 26 25 29 33
leaf_count=22 20 23 33 26 20 21 23 23 26 25 29 33
internal_value=0 0.00872773 -0.00556471 -0.0203287 -0.00684998 0.00916562 -0.0128485 0.0618972 0.00825515 -0.0360785 -0.0143138 0.032422
internal_weight=0 304 282 259 226 146 103 43 80 80 54 59
internal_count=324 304 282 259 226 146 103 43 80 80 54 59
is_linear=0
shrinkage=0.1


Tree=32
num_leaves=13
num_cat=0
split_feature=4 4 5 6 11 12 5 6 9 2 6 6
split_gain=37.5058 73.2236 45.5945 19.7874 17.2651 11.8719 24.0664 16.2931 12.6812 11.5854 10.0102 4.63924
threshold=0.67500000000000016 0.62750000000000006 7.1070000000000002 98.750000000000014 354.99500000000006 5.5100000000000007 6.4320000000000013 73.450000000000017 394.50000000000006 6.080000000000001 84.450000000000017 93.950000000000017
decision_type=2 2 2 2 2 2 2 2 2 2 2 2
left_child=1 2 5 4 -2 -1 7 8 9 -7 -9 -12
right_child=3 -3 -4 -5 -6 6 -8 10 -10 -11 11 -13
leaf_value=-0.076464588997455743 -0.098201151527464392 0.20044496148824692 0.13217214673544125 -0.15180791346356273 0.030174552983689037 -0.0091687548804927528 0.076222416723049399 -0.11548874527215958 -0.061496429592370984 0.072999539096417723 2.1080113947391512e-05 -0.059894607302599726
leaf_weight=26 20 20 24 20 22 37 31 20 20 32 24 28
leaf_count=26 20 20 24 20 22 37 31 20 20 32 24 28
internal_value=0 0.0165509 0.00135307 -0.069941 -0.0309567 -0.013049 -0.00446151 -0.0199969 0.00861587 0.0289383 -0.0553655 -0.0322412
internal_weight=0 262 242 62 42 218 192 161 89 69 72 52
internal_count=324 262 242 62 42 218 192 161 89 69 72 52
is_linear=0
shrinkage=0.1


Tree=33
num_leaves=13
num_cat=0
split_feature=12 0 7 7 10 6 11 7 11 5 12 0
split_gain=33.6245 27.2899 29.6755 32.2886 26.6604 9.10099 23.2422 18.169 7.81967 7.12681 3.97023 3.7119
threshold=4.3050000000000006 15.37645 1.6206000000000003 2.0547000000000004 15.750000000000002 65.350000000000009 396.37500000000006 3.9056500000000005 376.09000000000009 6.3505000000000011 13.600000000000001 0.085555000000000006
decision_type=2 2 2 2 2 2 2 2 2 2 2 2
left_child=-1 2 -2 -4 -5 7 8 -6 -7 11 -10 -9
right_child=1 -3 3 4 5 6 -8 9 10 -11 -12 -13
leaf_value=0.12236782596224832 0.11387635320425034 -0.1213714822381735 -0.096239967150236111 0.10912848995490508 0.090938438288867482 -0.049886205291841179 -0.1134947977688474 -0.059588420756161213 -0.0029187237222989401 0.031086823496001739 0.050269876712042354 -0.0017895717173814774
leaf_weight=21 21 20 37 22 24 24 24 25 36 27 23 20
leaf_count=21 21 20 37 22 24 24 24 25 36 27 23 20
internal_value=0 -0.00848094 -0.000502808 -0.0096706 0.00456525 -0.00676673 -0.0268225 0.0155871 -0.00176067 -0.00952997 0.0178158 -0.0339
internal_weight=0 303 283 262 225 203 107 96 83 72 59 45
internal_count=324 303 283 262 225 203 107 96 83 72 59 45
is_linear=0
shrinkage=0.1


Tree=34
num_leaves=13
num_cat=0
split_feature=12 0 7 7 10 0 9 0 4 11 11 4
split_gain=27.5187 21.4276 24.8381 25.1954 16.0237 8.35921 19.7141 8.93669 8.77672 7.69819 6.21067 3.45309
threshold=4.7150000000000007 15.37645 1.6206000000000003 2.0875500000000007 16.500000000000004 0.062370000000000009 278.00000000000006 0.12614500000000003 0.52800000000000014 382.08000000000004 377.00500000000005 0.57650000000000012
decision_type=2 2 2 2 2 2 2 2 2 2 2 2
left_child=-1 2 -2 9 -5 -6 -7 -8 -9 -4 -10 -12
right_child=1 -3 3 4 5 6 7 8 10 -11 11 -13
leaf_value=0.091233573059240985 0.10248871736583257 -0.10923433549702169 -0.12738128666765988 0.074974448813332456 -0.049302118761759058 0.080539813803301927 -0.075034878817386935 0.046932646273462858 -0.061490828947474568 -0.039641970731318005 -0.029251927670768719 0.023689847266567605
leaf_weight=30 21 20 20 27 38 27 20 27 24 20 22 28
leaf_count=30 21 20 20 27 38 27 20 27 24 20 22 28
internal_value=0 -0.00930955 -0.00201577 -0.0106901 0.00298536 -0.00746467 0.00327738 -0.013963 -0.00186956 -0.0835116 -0.0196758 0.000395466
internal_weight=0 294 274 253 213 186 148 121 101 40 74 50
internal_count=324 294 274 253 213 186 148 121 101 40 74 50
is_linear=0
shrinkage=0.1


Tree=35
num_leaves=12
num_cat=0
split_feature=11 12 6 7 7 7 2 0 12 6 11
split_gain=24.3321 57.3745 26.6022 21.2403 31.1673 21.8924 20.2552 19.6471 11.6832 9.54444 5.75674
threshold=395.73000000000008 4.7150000000000007 65.350000000000009 1.6206000000000003 2.0547000000000004 3.9611500000000004 9.7950000000000017 0.066260000000000013 15.270000000000001 86.100000000000009 390.09000000000009
decision_type=2 2 2 2 2 2 2 2 2 2 2
left_child=1 -1 7 -3 -5 6 -6 -2 -4 -8 -7
right_child=2 3 8 4 5 10 9 -9 -10 -11 -12
leaf_value=0.16726036557684776 -0.050513653971609618 0.096174394357062529 -0.15063749998807907 -0.099743303982540971 0.10423582405783237 -0.062607125379145145 0.04633701965212822 0.087975828202907003 -0.053207320304136378 -0.034115861455599465 -0.0021499319002032283
leaf_weight=23 21 21 20 32 32 36 29 20 32 30 28
leaf_count=23 21 21 20 32 32 36 29 20 32 30 28
internal_value=0 0.0173881 -0.0431898 0.000815702 -0.00989303 0.00865671 0.0401741 0.0170422 -0.0906805 0.00542878 -0.0361571
internal_weight=0 231 93 208 187 155 91 41 52 59 64
internal_count=324 231 93 208 187 155 91 41 52 59 64
is_linear=0
shrinkage=0.1


Tree=36
num_leaves=12
num_cat=0
split_feature=11 12 7 9 5 6 12 5 7 0 6
split_gain=23.1445 64.4616 35.3954 22.4079 26.0636 12.6351 20.903 12.3664 5.84029 3.15347 2.43818
threshold=388.48500000000007 8.9350000000000005 1.7012500000000002 225.00000000000003 6.8200000000000012 39.650000000000006 9.4600000000000026 5.8520000000000012 2.1842500000000005 0.22922500000000004 88.550000000000011
decision_type=2 2 2 2 2 2 2 2 2 2 2
left_child=1 -1 -2 -4 5 -5 -7 -3 -9 -8 -11
right_child=2 7 3 4 -6 6 9 8 -10 10 -12
leaf_value=0.14875169769927329 -0.14427332211108435 -0.066021396725305492 0.092738966420292862 0.052086669145031808 -0.1262692826986313 -0.10977951815750982 -0.0198340001339848 0.049032181225441118 -0.011795333743487534 0.044500818440601941 -0.0017194633185863496
leaf_weight=35 21 28 20 31 20 21 37 27 38 21 25
leaf_count=35 21 28 20 31 20 21 37 27 38 21 25
internal_value=0 0.0330731 -0.0215988 -0.00687781 -0.0197316 -0.00394823 -0.0206509 -0.0104619 0.0134715 0.00189967 0.0193811
internal_weight=0 128 196 175 155 135 104 93 65 83 46
internal_count=324 128 196 175 155 135 104 93 65 83 46
is_linear=0
shrinkage=0.1


Tree=37
num_leaves=13
num_cat=0
split_feature=4 4 11 7 9 12 6 9 0 6 11 6
split_gain=19.5803 65.1377 154.879 17.5189 16.8551 14.6687 14.2052 8.29971 6.92838 10.0967 8.56561 4.11178
threshold=0.67500000000000016 0.59100000000000008 388.48500000000007 1.9071500000000003 225.00000000000003 4.9400000000000004 79.450000000000017 407.00000000000006 0.11975500000000001 41.300000000000004 393.59000000000009 88.100000000000009
decision_type=2 2 2 2 2 2 2 2 2 2 2 2
left_child=1 4 -3 -2 -1 -6 7 8 9 -7 -10 -8
right_child=3 2 -4 -5 5 6 11 -9 10 -11 -12 -13
leaf_value=0.067308360501192516 -0.092779652602774543 0.28953403913974762 -0.070035902637502423 0.01635233317501843 -0.0899004289397487 0.043863174706697469 -0.091491023581475026 -0.050466933213174352 0.096026132876674331 -0.042184742192427321 0.005706016453249114 -0.031180632257690799
leaf_weight=24 38 25 23 24 27 25 20 20 21 30 21 26
leaf_count=24 38 25 23 24 27 25 20 20 21 30 21 26
internal_value=0 0.0119587 0.11724 -0.050535 -0.0116559 -0.0216303 -0.0103217 0.00818866 0.0202826 -0.00307205 0.0508661 -0.0574025
internal_weight=0 262 48 62 214 190 163 117 97 55 42 46
internal_count=324 262 48 62 214 190 163 117 97 55 42 46
is_linear=0
shrinkage=0.1


Tree=38
num_leaves=13
num_cat=0
split_feature=12 0 7 11 0 2 12 12 5 0 4 6
split_gain=17.259 14.2274 18.2795 19.0692 14.6031 11.081 11.6423 11.1425 7.4194 6.07467 4.37179 4.19335
threshold=4.3050000000000006 15.37645 1.6206000000000003 376.09000000000009 2.3735950000000003 4.8950000000000005 5.9450000000000012 7.955000000000001 5.7580000000000009 0.12614500000000003 0.52200000000000013 90.350000000000009
decision_type=2 2 2 2 2 2 2 2 2 2 2 2
left_child=-1 2 -2 4 -4 6 -5 -7 -9 -10 -11 -12
right_child=1 -3 3 5 -6 7 -8 8 9 10 11 -13
leaf_value=0.087669267257054651 0.089454280496353206 -0.087587757334113128 -0.0069522635240493154 0.10404934734106064 -0.10646746060500543 -0.069440675030151999 0.0088026280430230225 -0.046354869202427242 -0.020412831296843868 0.070934418411481945 0.043292475560749021 -0.014813327206217725
leaf_weight=21 21 20 29 21 30 24 33 23 31 21 27 23
leaf_count=21 21 20 29 21 30 24 33 23 31 21 27 23
internal_value=0 -0.00607609 -0.000315546 -0.00751084 -0.0575532 0.0070335 0.045843 -0.0070317 0.00495083 0.0165198 0.0326453 0.0165638
internal_weight=0 303 283 262 59 203 54 149 125 102 71 50
internal_count=324 303 283 262 59 203 54 149 125 102 71 50
is_linear=0
shrinkage=0.1


Tree=39
num_leaves=13
num_cat=0
split_feature=8 12 9 10 11 11 7 7 5 5 8 6
split_gain=16.1497 24.5432 15.9103 24.0755 10.8893 33.1926 28.4769 9.43193 8.18067 7.29777 4.22479 3.11601
threshold=2.5000000000000004 4.6400000000000015 278.00000000000006 17.850000000000005 348.40500000000003 139.56000000000003 1.9071500000000003 2.3853000000000004 5.8520000000000012 5.8875000000000002 6.5000000000000009 41.300000000000004
decision_type=2 2 2 2 2 2 2 2 2 2 2 2
left_child=-1 -2 3 -3 5 -4 8 -8 -6 -9 11 -11
right_child=1 2 4 -5 6 -7 7 9 -10 10 -12 -13
leaf_value=-0.074046793800813179 0.10368493273854257 0.12747740088538692 -0.065154968698819482 -0.013448901598652205 -0.053995349129573225 0.10247418118157872 0.060952434316277504 -0.06124940502643586 -0.14335919171571732 0.014977579597722402 0.031247031772188072 -0.032089842520116901
leaf_weight=27 24 22 21 27 21 27 20 25 20 22 29 39
leaf_count=27 24 22 21 27 21 27 20 25 20 22 29 39
internal_value=0 0.00673153 -0.00179185 0.0498241 -0.0130828 0.0291364 -0.0245972 -0.00242978 -0.0975875 -0.0134528 -0.000175924 -0.0151147
internal_weight=0 297 273 49 224 48 176 135 41 115 90 61
internal_count=324 297 273 49 224 48 176 135 41 115 90 61
is_linear=0
shrinkage=0.1


Tree=40
num_leaves=13
num_cat=0
split_feature=7 12 6 2 12 5 5 7 11 0 6 0
split_gain=16.5048 44.1036 14.1437 13.2178 20.9781 19.9315 24.0147 8.83601 5.51487 10.2374 5.19149 4.74673
threshold=6.341400000000001 4.7150000000000007 37.000000000000007 3.9850000000000008 8.8000000000000025 5.7580000000000009 5.8920000000000003 7.5250500000000011 378.88000000000005 5.3670950000000008 96.100000000000009 0.32403500000000002
decision_type=2 2 2 2 2 2 2 2 2 2 2 2
left_child=1 -1 -3 -4 -5 10 -7 -2 -8 11 -6 -10
right_child=7 2 3 4 5 6 8 -9 9 -11 -12 -13
leaf_value=0.15223808333277702 -0.097447000319759058 0.071200701004515088 0.060896264016628267 -0.11226052948761554 -0.09596414812233138 0.10355633871234507 0.026689811718117979 -0.0097085411406376155 -0.024020874468343598 -0.082862398847937585 -0.031311664109428726 0.033030859068036079
leaf_weight=20 24 24 24 21 23 24 35 22 35 20 27 25
leaf_count=20 24 24 24 21 23 24 35 22 35 20 27 25
internal_value=0 0.00918099 -0.0019087 -0.00940711 -0.0174418 -0.00690636 0.0125704 -0.0554851 -0.00641795 -0.0209026 -0.0610518 -0.000249319
internal_weight=0 278 258 234 210 189 139 46 115 80 50 60
internal_count=324 278 258 234 210 189 139 46 115 80 50 60
is_linear=0
shrinkage=0.1


Tree=41
num_leaves=14
num_cat=0
split_feature=7 5 12 4 7 6 12 11 6 6 12 10 0
split_gain=17.5843 22.4503 31.3172 8.49225 8.74298 9.41817 7.52097 8.5326 14.6916 5.97422 6.67812 4.65082 4.19617
threshold=1.5772500000000003 7.2450000000000001 4.8150000000000004 0.51250000000000007 4.4582500000000005 65.350000000000009 9.9500000000000011 368.65500000000003 94.200000000000003 90.350000000000009 17.980000000000004 18.950000000000003 0.28456000000000004
decision_type=2 2 2 2 2 2 2 2 2 2 2 2 2
left_child=-1 2 -2 4 5 -4 -5 8 -8 12 -11 -6 -9
right_child=1 -3 3 6 11 -7 7 9 -10 10 -12 -13 -14
leaf_value=0.075745547303397748 -0.13527356475591659 0.092495178111961909 0.10150778617709875 -0.07739949665963651 -0.028074168079556563 0.0076784898081551428 -0.10277823820386245 -0.0016054522175545573 0.014411686323583126 0.02047851715575565 -0.055797706559921306 0.031237967684865 0.060414646803595443
leaf_weight=28 20 21 20 20 39 23 23 20 20 22 24 20 24
leaf_count=28 20 21 20 20 39 23 23 20 20 22 24 20 24
internal_value=0 -0.00716512 -0.0147755 -0.00532472 0.0170258 0.05132 -0.020225 -0.0116274 -0.0482713 0.00588028 -0.0193178 -0.00796836 0.0322237
internal_weight=0 296 275 255 102 43 153 133 43 90 46 59 44
internal_count=324 296 275 255 102 43 153 133 43 90 46 59 44
is_linear=0
shrinkage=0.1


Tree=42
num_leaves=11
num_cat=0
split_feature=7 12 12 7 6 7 11 5 12 0
split_gain=15.3161 113.214 18.3504 15.03 10.6733 10.8185 8.3646 5.08681 4.20988 4.04082
threshold=3.0407000000000006 9.5150000000000023 4.5500000000000007 1.6634000000000002 41.300000000000004 5.6679500000000012 368.65500000000003 5.9540000000000006 16.930000000000003 0.11975500000000001
decision_type=2 2 2 2 2 2 2 2 2 2
left_child=1 -1 -2 -3 5 -4 -5 -6 -8 -9
right_child=2 3 4 6 7 -7 8 9 -10 -11
leaf_value=0.22731127615856087 -0.11123208463191987 -0.066906531213002426 0.074207182109355938 -0.033516685009905789 -0.067625540065077636 -0.01486342969040076 0.0067513449899613475 -0.040783894765040574 0.057574444357305771 0.0098742413800209771
leaf_weight=23 20 37 25 33 26 30 39 31 28 32
leaf_count=23 20 37 25 33 26 30 39 31 28 32
internal_value=0 0.0220122 -0.0214753 -0.0124541 -0.00900911 0.0256232 0.00769336 -0.0304111 0.0279908 -0.0150528
internal_weight=0 160 164 137 144 55 100 89 67 63
internal_count=324 160 164 137 144 55 100 89 67 63
is_linear=0
shrinkage=0.1


Tree=43
num_leaves=13
num_cat=0
split_feature=7 10 12 5 11 0 12 4 0 5 12 11
split_gain=16.2255 16.4597 32.0541 19.8493 10.2774 8.87566 7.73022 6.39194 10.2152 3.86194 3.41979 1.64294
threshold=1.5772500000000003 17.850000000000005 6.6150000000000011 7.1070000000000002 395.58500000000004 0.11975500000000001 10.810000000000002 0.69650000000000001 1.0513750000000002 6.5205000000000011 11.850000000000001 394.77500000000003
decision_type=2 2 2 2 2 2 2 2 2 2 2 2
left_child=-1 3 -3 4 9 -4 -7 8 11 10 -2 -8
right_child=1 2 5 -5 -6 6 7 -9 -10 -11 -12 -13
leaf_value=0.072760091875014574 -0.066694408543407913 -0.13517346346507902 -0.056604538939427587 0.10689258235304251 0.060503228990869087 0.048749079981020522 0.02874077055603266 0.029814260298835823 -0.06326784356623083 0.015502646565437317 -0.0082154637202620506 -0.011307004257105291
leaf_weight=28 20 23 32 23 22 28 21 29 37 21 20 20
leaf_count=28 20 23 32 23 22 28 21 29 37 21 20 20
internal_value=0 -0.00688271 -0.024496 0.0246883 0.00190879 -0.009253 0.00197106 -0.0102699 -0.025173 -0.0192236 -0.0374549 0.00920527
internal_weight=0 296 190 106 83 167 135 107 78 61 40 41
internal_count=324 296 190 106 83 167 135 107 78 61 40 41
is_linear=0
shrinkage=0.1


Tree=44
num_leaves=13
num_cat=0
split_feature=7 10 12 2 10 11 9 11 4 4 12 5
split_gain=13.1426 14.5553 14.9693 11.1835 5.86994 15.1758 11.1884 4.98715 3.74054 5.27461 7.48909 5.36785
threshold=1.5772500000000003 14.750000000000002 5.5100000000000007 3.5400000000000005 17.850000000000005 395.10000000000008 274.50000000000006 317.31000000000006 0.69650000000000001 0.6070000000000001 13.445000000000002 6.2295000000000007
decision_type=2 2 2 2 2 2 2 2 2 2 2 2
left_child=-1 -2 3 -3 5 -4 -6 -8 9 10 11 -9
right_child=1 2 4 -5 6 -7 7 8 -10 -11 -12 -13
leaf_value=0.065484083470489299 0.070203707788301553 -0.016270294636487961 -0.016585260235211431 -0.12202257677912712 -0.076913568636645446 0.090005428293211898 -0.042068819601375325 -0.035836996520212029 0.043493848040022633 -0.044193335849305862 0.053185178063533928 0.027556301712651145
leaf_weight=28 23 20 34 20 23 22 26 34 22 23 27 22
leaf_count=28 23 20 34 20 23 22 26 34 22 23 27 22
internal_value=0 -0.00619444 -0.0126309 -0.0691464 -0.00292868 0.0252897 -0.0118565 -0.0021402 0.0059703 -0.00181761 0.00992507 -0.0109325
internal_weight=0 296 273 40 233 56 177 154 128 106 83 56
internal_count=324 296 273 40 233 56 177 154 128 106 83 56
is_linear=0
shrinkage=0.1


Tree=45
num_leaves=12
num_cat=0
split_feature=11 6 12 7 11 6 5 2 12 7 9
split_gain=13.0393 38.9098 89.2108 21.6689 17.6773 14.8819 11.5237 6.78081 6.52797 5.21509 2.61174
threshold=388.48500000000007 89.250000000000014 16.385000000000005 1.7012500000000002 354.99500000000006 52.400000000000006 6.8200000000000012 5.160000000000001 8.9350000000000005 3.9056500000000005 431.00000000000006
decision_type=2 2 2 2 2 2 2 2 2 2 2
left_child=1 4 -3 -2 -1 -6 7 -5 -9 10 -10
right_child=3 2 -4 6 5 -7 -8 8 9 -11 -12
leaf_value=-0.099590619788928469 -0.11219602968721164 0.25634561546146867 -0.0045795188775580179 0.044414108494917559 -0.040447381588940817 0.071795341709540009 -0.062271347333645005 -0.05430755800652233 0.044693851996479295 -0.032050087563693527 0.003718527816236019
leaf_weight=22 21 20 38 36 27 21 29 22 28 25 35
leaf_count=22 21 20 38 36 27 21 29 22 28 25 35
internal_value=0 0.0248244 0.0853947 -0.0162118 -0.0253624 0.00865881 -0.00469373 0.00674292 -0.00558584 0.00659459 0.0219298
internal_weight=0 128 58 196 70 48 175 146 110 88 63
internal_count=324 128 58 196 70 48 175 146 110 88 63
is_linear=0
shrinkage=0.1


Tree=46
num_leaves=13
num_cat=0
split_feature=4 7 5 12 7 6 9 7 12 12 5 11
split_gain=13.2558 39.1086 23.4973 19.0181 14.9263 11.1182 7.46477 7.22986 4.85416 5.54777 4.73533 3.40976
threshold=0.68600000000000005 1.7962000000000002 7.1940000000000008 4.8150000000000004 1.9071500000000003 79.450000000000017 407.00000000000006 3.9056500000000005 13.010000000000002 17.980000000000004 5.9850000000000003 393.3300000000001
decision_type=2 2 2 2 2 2 2 2 2 2 2 2
left_child=1 -1 3 -3 -2 6 7 -5 -7 -10 -9 -12
right_child=4 2 -4 5 -6 8 -8 10 9 -11 11 -13
leaf_value=0.14041406824475242 -0.081535113297050474 -0.10454696282744408 0.096816948682747109 0.062614880472473392 0.024020168664754326 -0.071807796281317005 -0.036718987641127215 -0.033622750267386439 0.01552757733823875 -0.051895200185801675 -0.0029779289262369278 0.048274184340024714
leaf_weight=21 37 20 22 36 21 23 23 20 26 23 25 27
leaf_count=21 37 20 22 36 21 23 23 20 26 23 25 27
internal_value=0 0.00944502 -0.0017809 -0.011508 -0.0433168 -0.00234164 0.0150084 0.0260244 -0.0339091 -0.0161198 0.00772916 0.0236337
internal_weight=0 266 245 223 58 203 131 108 72 49 72 52
internal_count=324 266 245 223 58 203 131 108 72 49 72 52
is_linear=0
shrinkage=0.1


Tree=47
num_leaves=13
num_cat=0
split_feature=8 12 5 5 5 4 7 0 7 12 7 4
split_gain=13.3766 23.1212 17.2325 14.254 22.1359 10.1163 12.0946 5.7702 5.96069 5.28742 4.02087 3.08375
threshold=2.5000000000000004 4.7150000000000007 6.9240000000000004 5.8705000000000007 5.9455000000000009 0.50850000000000006 4.4582500000000005 4.2418500000000003 2.6619000000000006 18.740000000000006 1.6110500000000003 0.58450000000000013
decision_type=2 2 2 2 2 2 2 2 2 2 2 2
left_child=-1 -2 3 10 -5 6 -6 8 -7 -9 -3 -12
right_child=1 2 -4 4 5 7 -8 9 -10 -11 11 -13
leaf_value=-0.067390251759853623 0.0943586078024021 -0.068966132828167506 -0.087518504702232103 0.11421504799615255 0.10302060505375266 -0.078613672005012639 0.0060313558244767286 -0.016985892031628352 -0.0081349879379073783 0.051405107267200947 -0.038382191111644114 0.010286875887085564
leaf_weight=27 27 21 22 22 20 20 36 26 30 20 30 23
leaf_count=27 27 21 22 22 20 20 36 26 30 20 30 23
internal_value=0 0.00612639 -0.00269684 0.00482767 0.0204622 0.00689268 0.0406704 -0.012811 -0.0363265 0.0127493 -0.0319345 -0.0172617
internal_weight=0 297 270 248 174 152 56 96 50 46 74 53
internal_count=324 297 270 248 174 152 56 96 50 46 74 53
is_linear=0
shrinkage=0.1


Tree=48
num_leaves=12
num_cat=0
split_feature=0 7 10 12 8 9 11 5 12 5 5
split_gain=11.2438 37.4259 17.2917 11.1487 6.00112 6.67377 5.3637 10.3456 6.3556 4.25657 0.575835
threshold=15.37645 1.6206000000000003 14.750000000000002 5.3100000000000014 2.5000000000000004 278.00000000000006 393.24000000000007 6.0005000000000015 14.345000000000001 6.2505000000000015 6.1705000000000014
decision_type=2 2 2 2 2 2 2 2 2 2 2
left_child=1 -1 -3 -4 -5 -6 7 -7 10 -9 -8
right_child=-2 2 3 4 5 6 8 9 -10 -11 -12
leaf_value=0.13039924655617638 -0.072628443520516159 0.084603067710995683 -0.065281802547328613 -0.053542280891402207 0.040517412485658294 -0.065634894562619076 -0.02424137942492962 0.032174373418092726 0.048081803844580731 -0.020045680385118357 -0.00024480864405632016
leaf_weight=22 20 20 34 22 36 35 20 27 31 37 20
leaf_count=22 20 20 34 22 36 35 20 27 31 37 20
internal_value=0 0.00477819 -0.00502204 -0.0118636 -0.00389778 0.00140406 -0.00687877 -0.0219212 0.0140959 0.00198465 -0.0122431
internal_weight=0 304 282 262 228 206 170 99 71 64 40
internal_count=324 304 282 262 228 206 170 99 71 64 40
is_linear=0
shrinkage=0.1


Tree=49
num_leaves=13
num_cat=0
split_feature=4 7 5 12 7 6 9 7 7 12 5 11
split_gain=11.2393 31.386 18.7588 15.96 12.6547 8.34837 5.92948 5.92757 4.29343 5.49864 3.6306 2.98607
threshold=0.68600000000000005 1.7962000000000002 7.1940000000000008 4.8150000000000004 1.9071500000000003 79.450000000000017 407.00000000000006 3.9056500000000005 3.0922000000000005 14.695000000000002 5.9850000000000003 393.3300000000001
decision_type=2 2 2 2 2 2 2 2 2 2 2 2
left_child=1 -1 3 -3 -2 6 7 -5 9 -7 -9 -12
right_child=4 2 -4 5 -6 8 -8 10 -10 -11 11 -13
leaf_value=0.12602478269310224 -0.075076446405335062 -0.09528181875124575 0.086737162111835048 0.056330212723049861 0.022115240370233855 -0.051787688550539314 -0.032721460092326869 -0.029575475938618187 -0.06354205468669534 0.016864469248269284 -0.0043442544490098958 0.043618021629474785
leaf_weight=21 37 20 22 36 21 20 23 20 24 28 25 27
leaf_count=21 37 20 22 36 21 20 23 20 24 28 25 27
internal_value=0 0.00869702 -0.00135964 -0.0100508 -0.0398864 -0.00165366 0.0133806 0.0231987 -0.0290077 -0.0117406 0.00663293 0.0205592
internal_weight=0 266 245 223 58 203 131 108 72 48 72 52
internal_count=324 266 245 223 58 203 131 108 72 48 72 52
is_linear=0
shrinkage=0.1


Tree=50
num_leaves=14
num_cat=0
split_feature=11 12 5 6 6 11 2 9 0 0 12 12 6
split_gain=11.3382 34.6288 22.1573 14.5357 41.409 19.5761 9.89892 9.25709 4.83572 3.89598 5.27376 5.4193 2.13736
threshold=392.79000000000002 4.9400000000000004 6.8200000000000012 92.500000000000014 84.450000000000017 336.51500000000004 5.160000000000001 407.00000000000006 0.11975500000000001 0.096805000000000016 18.740000000000006 15.270000000000001 74.850000000000009
decision_type=2 2 2 2 2 2 2 2 2 2 2 2 2
left_child=1 -1 6 4 7 -5 -2 8 -3 -8 11 12 -11
right_child=2 3 -4 5 -6 -7 9 -9 -10 10 -12 -13 -14
leaf_value=0.14140662515535951 0.049834046706005386 -0.01921326502536734 -0.1125669314102693 0.023273184702598624 0.14585480122742328 -0.092079789960576641 -0.056580810426246554 -0.067076417874722252 0.044267166716357075 0.0092874348443001513 -0.048042254347819835 0.04992484120186419 -0.03694418758153916
leaf_weight=20 27 24 22 28 22 31 21 21 24 20 24 20 20
leaf_count=20 27 24 22 28 22 31 21 21 24 20 24 20 20
internal_value=0 0.0178047 -0.0196546 0.00132447 0.02639 -0.037336 -0.00416917 -0.0117002 0.012527 -0.0180557 -0.00842443 0.0074227 -0.0138284
internal_weight=0 170 154 150 91 59 132 69 48 105 84 60 40
internal_count=324 170 154 150 91 59 132 69 48 105 84 60 40
is_linear=0
shrinkage=0.1


Tree=51
num_leaves=14
num_cat=0
split_feature=0 7 10 12 8 9 5 11 7 0 8 6 12
split_gain=9.33252 30.1987 12.7842 11.5563 4.88566 5.23581 4.33075 7.13791 5.58971 5.7612 7.54908 4.01152 2.7503
threshold=15.37645 1.6206000000000003 15.000000000000002 5.3100000000000014 2.5000000000000004 278.00000000000006 5.8705000000000007 393.24000000000007 2.1842500000000005 4.4821000000000009 6.5000000000000009 79.450000000000017 9.4600000000000026
decision_type=2 2 2 2 2 2 2 2 2 2 2 2 2
left_child=1 -1 -3 -4 -5 -6 7 -7 -8 10 11 12 -10
right_child=-2 2 3 4 5 6 8 -9 9 -11 -12 -13 -14
leaf_value=0.11719519861719825 -0.066168127683922648 0.066999294155317801 -0.068080655725732936 -0.04779984534464099 0.036421861447807811 -0.074589352278659746 0.048127101005419448 0.008884939961135388 -0.01671411822802232 -0.054600540559040379 0.058806934915483 -0.046189578791910955 0.033496513748541477
leaf_weight=22 20 23 31 22 36 21 23 20 24 20 20 22 20
leaf_count=22 20 23 31 22 36 21 23 20 24 20 20 22 20
internal_value=0 0.00435317 -0.00445011 -0.010795 -0.00300621 0.00177758 -0.00555886 -0.0338702 0.00343932 -0.00625709 0.00498557 -0.0113239 0.0061089
internal_weight=0 304 282 259 228 206 170 41 129 106 86 66 44
internal_count=324 304 282 259 228 206 170 41 129 106 86 66 44
is_linear=0
shrinkage=0.1


Tree=52
num_leaves=13
num_cat=0
split_feature=12 5 6 4 5 5 6 6 9 7 12 10
split_gain=10.5884 17.6006 10.5042 16.7898 19.9046 8.04028 7.46465 4.03639 3.92664 3.50306 2.70216 2.55991
threshold=4.7150000000000007 6.9240000000000004 98.750000000000014 0.66350000000000009 6.0645000000000016 6.4320000000000013 73.450000000000017 84.450000000000017 394.50000000000006 3.9056500000000005 17.375000000000004 18.750000000000004
decision_type=2 2 2 2 2 2 2 2 2 2 2 2
left_child=-1 2 3 5 -5 6 8 -8 9 -2 -9 -11
right_child=1 -3 -4 4 -6 -7 7 10 -10 11 -12 -13
leaf_value=0.056592176004002494 0.04933989995118717 -0.086034260801970963 -0.047797875126471392 0.13893665852025153 0.0025309689869375332 0.041588851911100476 -0.076003902349621066 0.00091048317650953932 -0.03104232828852467 0.02618161551654339 -0.048208212284814748 -0.021043666622911891
leaf_weight=30 23 25 37 20 23 33 20 24 22 22 21 24
leaf_count=30 23 25 37 20 23 33 20 24 22 22 21 24
internal_value=0 -0.00577471 0.00168435 0.00957592 0.0659755 -0.00325573 -0.0127421 -0.0386246 0.00574543 0.0174749 -0.0220116 0.00154234
internal_weight=0 294 269 232 43 189 156 65 91 69 45 46
internal_count=324 294 269 232 43 189 156 65 91 69 45 46
is_linear=0
shrinkage=0.1


Tree=53
num_leaves=13
num_cat=0
split_feature=4 4 5 7 12 5 6 12 12 5 11 11
split_gain=10.5672 28.1411 12.2266 11.805 11.554 10.2819 6.89023 4.87946 3.51383 4.07609 8.646 1.36807
threshold=0.68600000000000005 0.62750000000000006 7.1070000000000002 1.9071500000000003 5.5100000000000007 6.4660000000000011 79.450000000000017 14.795000000000002 13.445000000000002 5.9455000000000009 395.10000000000008 392.47500000000008
decision_type=2 2 2 2 2 2 2 2 2 2 2 2
left_child=1 2 4 -2 -1 6 8 -8 9 -6 -11 -9
right_child=3 -3 -4 -5 5 -7 7 11 -10 10 -12 -13
leaf_value=-0.071828654179206267 -0.072663601090804344 0.11171676783512037 0.065933353236565989 0.021208539818014419 -0.040481039543043489 0.056410371498377236 -0.075517013296484956 -0.033688439284874631 0.041296153615059505 -0.020111098585443368 0.059460695443505601 0.0024485347047448159
leaf_weight=26 37 24 24 21 22 27 21 22 22 36 22 20
leaf_count=26 37 24 24 21 22 27 21 22 22 36 22 20
internal_value=0 0.00843298 -0.00181004 -0.0386754 -0.00926802 -0.000796271 -0.0101574 -0.0361592 0.00590263 -0.00383059 0.0100713 -0.0164804
internal_weight=0 266 242 58 218 192 165 63 102 80 58 42
internal_count=324 266 242 58 218 192 165 63 102 80 58 42
is_linear=0
shrinkage=0.1


Tree=54
num_leaves=14
num_cat=0
split_feature=11 12 5 0 7 7 0 2 9 6 6 8 4
split_gain=9.03453 26.9779 17.5438 13.318 35.4533 12.11 11.7591 7.86892 4.00923 5.73443 1.96109 1.71791 1.63365
threshold=392.79000000000002 4.9400000000000004 6.8200000000000012 8.1999150000000025 1.9310500000000002 3.9611500000000004 0.62666000000000011 5.160000000000001 306.00000000000006 97.550000000000026 58.800000000000004 7.5000000000000009 0.43745000000000006
decision_type=2 2 2 2 2 2 2 2 2 2 2 2 2
left_child=1 -1 7 4 -3 6 -6 -2 10 11 -9 -10 -7
right_child=2 3 -4 -5 5 12 -8 8 9 -11 -12 -13 -14
leaf_value=0.12498975020833314 0.04438319438033634 -0.13197484790746655 -0.10022015138105914 0.05856617889367044 0.089750833657604681 -0.0081759903918613083 -0.0044720532802435074 -0.018470108934811182 0.0017452904792583509 -0.044429544787853964 -0.061687041819095616 0.041818649806082249 -0.046713401377201084
leaf_weight=20 27 21 22 32 27 22 26 21 23 20 21 20 22
leaf_count=20 27 21 22 32 27 22 26 21 23 20 21 20 22
internal_value=0 0.0158934 -0.0175446 0.00134719 -0.0141698 0.0113344 0.0435283 -0.00376538 -0.0161464 -0.000191686 -0.0400786 0.0203841 -0.0274447
internal_weight=0 170 154 150 118 97 53 132 105 63 42 43 44
internal_count=324 170 154 150 118 97 53 132 105 63 42 43 44
is_linear=0
shrinkage=0.1


Tree=55
num_leaves=13
num_cat=0
split_feature=8 12 5 5 5 12 10 2 7 12 7 11
split_gain=8.56254 16.308 13.5567 8.80334 18.247 6.05782 5.23911 5.3785 4.4665 4.17299 2.95683 1.21834
threshold=2.5000000000000004 4.7150000000000007 6.9240000000000004 5.8705000000000007 5.9455000000000009 20.000000000000004 17.350000000000005 6.660000000000001 2.2596500000000002 15.775 1.7429000000000003 395.22500000000008
decision_type=2 2 2 2 2 2 2 2 2 2 2 2
left_child=-1 -2 3 9 -5 6 -6 -8 -9 -3 -11 -10
right_child=1 2 -4 4 5 -7 7 8 11 10 -12 -13
leaf_value=-0.053916912939813405 0.079002199625527417 -0.05605625966218887 -0.077741779065267608 0.10157208948142149 -0.02564279738942097 -0.047154927738010888 0.06283766640722753 0.05028782911598683 0.0068151544262137686 -0.03234810680150986 0.017827476840466261 -0.023054886575449598
leaf_weight=27 27 27 22 22 29 20 25 20 36 23 24 22
leaf_count=27 27 27 22 22 29 20 25 20 36 23 24 22
internal_value=0 0.00490154 -0.00250853 0.00416539 0.0164522 0.00413221 0.011903 0.0224741 0.00953711 -0.0247252 -0.00672653 -0.00451486
internal_weight=0 297 270 248 174 152 132 103 78 74 47 58
internal_count=324 297 270 248 174 152 132 103 78 74 47 58
is_linear=0
shrinkage=0.1


Tree=56
num_leaves=13
num_cat=0
split_feature=6 12 11 12 11 7 7 12 6 12 5 11
split_gain=9.25259 81.2974 11.7323 12.3767 9.05721 20.3819 8.27122 6.1389 7.29636 10.0193 4.27163 4.65343
threshold=89.250000000000014 12.470000000000001 354.99500000000006 4.5500000000000007 359.0750000000001 1.6634000000000002 2.1509000000000005 14.345000000000001 65.350000000000009 9.6050000000000022 6.1430000000000016 395.53000000000003
decision_type=2 2 2 2 2 2 2 2 2 2 2 2
left_child=2 -2 -1 -4 -3 -6 -7 8 10 -10 -5 -12
right_child=1 4 3 7 5 6 -8 -9 9 -11 11 -13
leaf_value=-0.081806776875799347 0.20071933783945584 0.02937279080351194 -0.076794539037204929 -0.014802067317068577 -0.11302631782448812 0.04456603974103928 -0.042237540015152529 0.052651006177715634 -0.088941087862476717 0.0052034535230352334 0.0084165846340750385 0.067072397151163643
leaf_weight=22 21 30 21 35 23 23 21 23 20 26 38 21
leaf_count=22 21 30 21 35 23 23 21 23 20 26 38 21
internal_value=0 0.0223281 -0.0127899 -0.00453786 -0.0162927 -0.0367399 0.00313706 0.00477128 -0.00309467 -0.035729 0.0128753 0.0292941
internal_weight=0 118 206 184 97 67 44 163 140 46 94 59
internal_count=324 118 206 184 97 67 44 163 140 46 94 59
is_linear=0
shrinkage=0.1


Tree=57
num_leaves=14
num_cat=0
split_feature=7 7 5 0 12 6 12 5 10 6 0 0 11
split_gain=10.3288 8.63308 16.0412 15.9379 15.8899 3.93901 7.35508 6.81556 4.05379 5.51864 3.74819 3.44556 1.70841
threshold=1.5772500000000003 2.0044500000000007 7.1940000000000008 4.4821000000000009 4.8150000000000004 94.850000000000009 17.185000000000006 6.0890000000000013 18.250000000000004 55.150000000000006 0.091710000000000014 0.048610000000000007 390.98000000000008
decision_type=2 2 2 2 2 2 2 2 2 2 2 2 2
left_child=-1 3 4 -2 -3 6 7 8 -6 -10 11 -9 -12
right_child=1 2 -4 -5 5 -7 -8 10 9 -11 12 -13 -14
leaf_value=0.058052356221846173 -0.11249049842357635 -0.09101240739226342 0.083536561883308671 0.0043899322327758585 0.0094829488376324822 -0.03764170448888432 0.060027698816164682 0.010266680199475516 -0.0066259896449212515 -0.078294646943157367 0.018234497979283334 0.06755095274143276 -0.017437222917917477
leaf_weight=28 20 20 22 28 22 22 23 21 21 22 25 21 29
leaf_count=28 20 20 22 28 22 22 23 21 21 22 25 21 29
internal_value=0 -0.00549144 0.00202188 -0.0443102 -0.00591318 0.00234888 0.00713037 -0.000426397 -0.0254308 -0.0432937 0.0165037 0.0389088 -0.000922537
internal_weight=0 296 248 48 226 206 184 161 65 43 96 42 54
internal_count=324 296 248 48 226 206 184 161 65 43 96 42 54
is_linear=0
shrinkage=0.1


Tree=58
num_leaves=13
num_cat=0
split_feature=7 9 2 7 10 12 6 0 0 5 5 0
split_gain=8.36635 8.01434 9.03158 8.26885 20.4782 12.4314 11.1394 9.33111 5.47495 8.489 6.25616 3.98989
threshold=1.5772500000000003 225.00000000000003 3.4250000000000003 2.0044500000000007 16.500000000000004 6.1800000000000006 37.000000000000007 5.7660950000000009 0.12614500000000003 5.7580000000000009 6.0645000000000016 4.4821000000000009
decision_type=2 2 2 2 2 2 2 2 2 2 2 2
left_child=-1 -2 -3 7 -5 -6 -7 -4 -8 -10 -11 -12
right_child=1 2 3 4 5 6 8 -9 9 10 11 -13
leaf_value=0.052247120546443128 0.0504522263382872 -0.064720737989302043 -0.093258742243051529 0.084412475043375582 -0.079912937705272025 0.067964361845092344 -0.04815154038369656 -0.0031392463931330934 -0.056266116388142107 0.058024464725982397 0.020931694127859609 -0.034039157122859487
leaf_weight=28 24 27 20 28 21 22 28 27 20 25 31 23
leaf_count=28 24 27 20 28 21 22 28 27 20 25 31 23
internal_value=0 -0.0049423 -0.00983005 -0.00378087 0.00516981 -0.00788193 0.00227009 -0.041488 -0.00911002 0.00193203 0.0166657 -0.00248182
internal_weight=0 296 272 245 198 170 149 47 127 99 79 54
internal_count=324 296 272 245 198 170 149 47 127 99 79 54
is_linear=0
shrinkage=0.1


Tree=59
num_leaves=13
num_cat=0
split_feature=3 12 7 5 6 4 5 6 9 7 0 4
split_gain=8.24353 9.27605 27.8071 11.9635 9.13687 4.02225 4.28571 5.32477 3.99628 2.7348 4.23573 2.87225
threshold=1.0000000180025095e-35 5.9450000000000012 5.6679500000000012 6.7600000000000007 98.850000000000009 0.68600000000000005 6.4190000000000014 79.450000000000017 355.00000000000006 2.9359000000000006 0.14006000000000005 0.44050000000000006
decision_type=2 2 2 2 2 2 2 2 2 2 2 2
left_child=1 2 -1 4 5 6 7 9 -9 -3 11 -11
right_child=-2 3 -4 -5 -6 -7 -8 8 -10 10 -12 -13
leaf_value=0.10866994452476503 0.055163215517997743 0.035428096815234143 -0.043687855841025067 -0.086511397585272792 -0.058379968435599887 0.033578132499348039 0.037684799801735655 -0.071256221327930691 -0.014606982051874651 -0.0014096061106432568 0.021949085814412683 -0.053770759492181242
leaf_weight=25 25 21 23 20 29 33 21 20 33 22 32 20
leaf_count=25 25 21 23 20 29 33 21 20 33 22 32 20
internal_value=0 -0.00461231 0.0356652 -0.0123148 -0.00589082 0.00164475 -0.00459077 -0.0105893 -0.0359841 0.00357826 -0.00546021 -0.0263435
internal_weight=0 299 48 251 231 202 169 148 53 95 74 42
internal_count=324 299 48 251 231 202 169 148 53 95 74 42
is_linear=0
shrinkage=0.1


Tree=60
num_leaves=13
num_cat=0
split_feature=7 12 7 12 6 7 5 12 6 2 6 12
split_gain=8.30087 58.1701 13.544 10.9547 8.19417 5.25388 4.98907 8.57228 4.36963 1.89301 4.73622 1.20811
threshold=3.0922000000000005 9.5150000000000023 1.5175000000000003 4.5500000000000007 41.300000000000004 5.4009000000000009 6.1705000000000014 15.775 95.350000000000009 9.7950000000000017 71.300000000000011 17.105000000000004
decision_type=2 2 2 2 2 2 2 2 2 2 2 2
left_child=1 -1 -3 -2 5 -5 7 -4 -9 10 -6 -8
right_child=3 2 6 4 9 -7 11 8 -10 -11 -12 -13
leaf_value=0.15967427777747314 -0.085365401208400735 -0.085057183802127845 -0.021180583218172677 0.061716819732365286 -0.013288648064647402 -0.0013721246159437931 -0.0077092324909956563 0.080471158737228043 0.018009556829929354 -0.0047597047262664498 -0.072500406913670976 -0.041314553916454319
leaf_weight=24 20 20 31 22 35 33 23 21 24 29 22 20
leaf_count=24 20 20 31 22 35 33 23 21 24 29 22 20
internal_value=0 0.0159077 -0.00891526 -0.0161053 -0.00628123 0.0238635 0.0038817 0.0192832 0.0471583 -0.0255598 -0.0361423 -0.0233396
internal_weight=0 163 139 161 141 55 119 76 45 86 57 43
internal_count=324 163 139 161 141 55 119 76 45 86 57 43
is_linear=0
shrinkage=0.1


Tree=61
num_leaves=13
num_cat=0
split_feature=7 11 5 12 7 11 6 12 11 7 7 6
split_gain=9.26003 6.54302 14.0639 11.1965 8.23504 4.82657 4.55822 5.41116 4.8489 5.55307 2.8877 1.77301
threshold=1.5772500000000003 368.65500000000003 7.2450000000000001 4.8150000000000004 2.1234500000000005 378.88000000000005 41.300000000000004 9.3350000000000026 395.35500000000008 2.7083000000000008 2.4150500000000004 72.200000000000017
decision_type=2 2 2 2 2 2 2 2 2 2 2 2
left_child=-1 4 3 -3 -2 -5 -7 -8 10 -10 -9 -12
right_child=1 2 -4 5 -6 6 7 8 9 -11 11 -13
leaf_value=0.054966822160141808 -0.080334447588150712 -0.076783634498715406 0.082140447795391092 0.047035232718501775 -0.0017451279610395433 0.027695937112376497 -0.050257322230729568 -0.051126006972044703 0.056352545538296307 -0.011673634018128118 -0.027369463851764086 0.011697348651404565
leaf_weight=28 24 20 20 21 30 37 29 20 24 24 21 26
leaf_count=28 24 20 20 21 30 37 29 20 24 24 21 26
internal_value=0 -0.00519956 0.00182359 -0.00541216 -0.0366737 0.00165432 -0.00361087 -0.011655 -0.00192047 0.0223395 -0.0193007 -0.00575804
internal_weight=0 296 242 222 54 202 181 144 115 48 67 47
internal_count=324 296 242 222 54 202 181 144 115 48 67 47
is_linear=0
shrinkage=0.1


Tree=62
num_leaves=12
num_cat=0
split_feature=12 5 11 11 7 12 4 7 6 12 12
split_gain=8.05648 16.3675 5.80401 18.4281 12.977 5.74965 9.16823 7.54375 4.5708 3.23932 1.52908
threshold=4.7150000000000007 6.9240000000000004 139.56000000000003 359.0750000000001 1.6634000000000002 9.3350000000000026 0.48850000000000005 3.0922000000000005 92.65000000000002 10.515000000000002 13.600000000000001
decision_type=2 2 2 2 2 2 2 2 2 2 2
left_child=-1 2 -2 -4 -5 6 -6 8 -7 -9 -11
right_child=1 -3 3 4 5 7 -8 9 -10 10 -12
leaf_value=0.049364309981465342 -0.048322399315379919 -0.082433992087841038 0.072580382807387253 -0.079417908972217927 0.0082336321669189555 0.065650346124488307 -0.071759370406684661 0.020871639426331967 0.012175633148440432 -0.043375061012127181 -0.0051706650480628016
leaf_weight=30 21 25 36 21 38 33 23 24 31 22 20
leaf_count=30 21 25 36 21 38 33 23 24 31 22 20
internal_value=0 -0.00503717 0.00215584 0.00643021 -0.00480284 0.00340091 -0.0219277 0.0152859 0.0397485 -0.00843553 -0.0251825
internal_weight=0 294 269 248 212 191 61 130 64 66 42
internal_count=324 294 269 248 212 191 61 130 64 66 42
is_linear=0
shrinkage=0.1


Tree=63
num_leaves=13
num_cat=0
split_feature=7 9 12 12 12 5 11 6 11 11 7 12
split_gain=8.55744 6.6893 6.92669 6.42188 5.18822 5.05032 2.78671 6.43595 6.4194 3.1219 3.95417 1.40269
threshold=1.5772500000000003 225.00000000000003 5.6900000000000004 7.3550000000000013 9.0850000000000026 6.8675000000000006 368.65500000000003 94.200000000000003 386.74000000000007 393.24000000000007 2.3853000000000004 14.345000000000001
decision_type=2 2 2 2 2 2 2 2 2 2 2 2
left_child=-1 -2 5 -4 -5 -3 7 -6 -8 -10 -11 -12
right_child=1 2 3 4 6 -7 8 -9 9 10 11 -13
leaf_value=0.052840418475014833 0.045610064594075087 -0.083305875472724444 0.046226271117726966 -0.051134118676185607 -0.055370694936977494 -0.01309136436099098 0.049399033713976123 0.019473569486290216 -0.030507662306938854 0.0401611433081005 -0.02310493064503516 0.010863130316138267
leaf_weight=28 24 20 24 25 27 21 26 20 35 23 31 20
leaf_count=28 24 20 24 25 27 21 26 20 35 23 31 20
internal_value=0 -0.00499842 -0.00946387 -0.00274085 -0.0084182 -0.0473423 -0.00255063 -0.0235221 0.00475054 -0.00589956 0.00573941 -0.00978412
internal_weight=0 296 272 231 207 41 182 47 135 109 74 51
internal_count=324 296 272 231 207 41 182 47 135 109 74 51
is_linear=0
shrinkage=0.1


Tree=64
num_leaves=11
num_cat=0
split_feature=12 5 6 4 5 0 5 6 7 6
split_gain=7.3996 13.9141 5.85405 12.641 16.3259 5.37247 4.02371 3.53982 5.98012 2.07906
threshold=4.7150000000000007 6.9240000000000004 98.850000000000009 0.66350000000000009 6.0645000000000016 1.0513750000000002 6.3810000000000011 63.900000000000013 4.7434500000000002 82.700000000000003
decision_type=2 2 2 2 2 2 2 2 2 2
left_child=-1 2 3 5 -5 6 7 8 -2 -9
right_child=1 -3 -4 4 -6 -7 -8 9 -10 -11
leaf_value=0.047309089458237093 0.053296448687218473 -0.076188258528709418 -0.03764577959523057 0.1223440981679596 0.0011280874013900757 -0.040610725772708203 0.031627698166248129 -0.044511881127953533 -0.012540382869239594 -0.0067541905678808693
leaf_weight=30 22 25 33 20 25 33 39 25 37 35
leaf_count=30 22 25 33 20 25 33 39 25 37 35
internal_value=0 -0.00482746 0.00180459 0.00732095 0.0550019 -0.00391277 0.00375199 -0.00538375 0.0120089 -0.0224866
internal_weight=0 294 269 236 45 191 158 119 59 60
internal_count=324 294 269 236 45 191 158 119 59 60
is_linear=0
shrinkage=0.1


Tree=65
num_leaves=14
num_cat=0
split_feature=4 7 5 12 7 7 7 5 12 11 0 5 11
split_gain=7.34884 25.732 10.4219 8.4227 7.16401 3.69947 6.72134 4.27025 2.55073 2.37471 2.33145 1.98695 0.875886
threshold=0.68600000000000005 1.7962000000000002 7.019000000000001 5.5100000000000007 1.9071500000000003 2.5136500000000006 3.9056500000000005 5.9670000000000014 13.445000000000002 385.23000000000008 0.061390000000000007 6.2295000000000007 394.77500000000003
decision_type=2 2 2 2 2 2 2 2 2 2 2 2 2
left_child=1 -1 3 -3 -2 7 8 -5 11 -8 -11 -7 -12
right_child=4 2 -4 5 -6 6 9 -9 -10 10 12 -13 -14
leaf_value=0.11326795724176227 -0.058729773326902782 -0.065871073879922429 0.051138141145929697 0.0034885323860428552 0.014397847723393215 -0.0064645525254309185 -0.042541982155914114 -0.0581365980045951 0.059561425410211088 0.023493367912513871 -0.0028739613081727711 0.038110670894384385 -0.03175608182237262
leaf_weight=21 37 24 32 22 21 20 21 23 20 21 21 20 21
leaf_count=21 37 24 32 22 21 20 21 23 20 21 21 20 21
internal_value=0 0.00703251 -0.00207339 -0.0100676 -0.0322525 -0.00298145 0.00483958 -0.0280088 0.0304025 -0.0134197 -0.00371223 0.0158231 -0.017315
internal_weight=0 266 245 213 58 189 144 45 60 84 63 40 42
internal_count=324 266 245 213 58 189 144 45 60 84 63 40 42
is_linear=0
shrinkage=0.1


Tree=66
num_leaves=13
num_cat=0
split_feature=0 7 2 7 10 12 10 9 11 0 12 6
split_gain=7.69572 26.1006 8.3334 11.0025 8.71248 7.30047 2.88227 8.08307 4.94397 2.63581 2.48002 1.86983
threshold=15.37645 1.6206000000000003 18.840000000000003 2.1234500000000005 16.050000000000004 4.8150000000000004 17.850000000000005 274.50000000000006 395.10000000000008 1.0513750000000002 9.9500000000000011 71.300000000000011
decision_type=2 2 2 2 2 2 2 2 2 2 2 2
left_child=1 -1 3 -3 -5 -6 8 -8 -7 10 -9 -12
right_child=-2 2 -4 4 5 6 7 9 -10 -11 11 -13
leaf_value=0.1088593675331636 -0.060086087570525706 -0.067608621485274412 0.050885539099574086 0.052273462025018841 -0.066574943605810399 -0.0084054311436991529 -0.067693070233577776 -0.0097921842228501088 0.054436413087837754 -0.021194760697452644 0.049511565580032772 0.0062700814896379607
leaf_weight=22 20 29 25 26 20 31 21 31 21 38 20 20
leaf_count=22 20 29 25 26 20 31 21 31 21 38 20 20
internal_value=0 0.00395303 -0.00423115 -0.0095927 -0.00221348 -0.00922665 -0.00292464 -0.0108837 0.016973 6.12323e-05 0.0114377 0.0278908
internal_weight=0 304 282 257 228 202 182 130 52 109 71 40
internal_count=324 304 282 257 228 202 182 130 52 109 71 40
is_linear=0
shrinkage=0.1


Tree=67
num_leaves=13
num_cat=0
split_feature=0 11 11 7 7 9 12 6 6 5 0 4
split_gain=7.12472 27.5761 36.8912 24.3284 17.0761 7.43471 8.05003 7.22216 5.34231 2.64589 2.23528 0.521954
threshold=4.2418500000000003 378.88000000000005 195.16500000000005 1.9310500000000002 2.3853000000000004 225.00000000000003 4.6400000000000015 96.40000000000002 79.450000000000017 6.3505000000000011 0.12937000000000001 0.43745000000000006
decision_type=2 2 2 2 2 2 2 2 2 2 2 2
left_child=3 2 -2 -1 -5 -6 -7 -3 9 10 -8 -11
right_child=1 7 -4 4 5 6 8 -9 -10 11 -12 -13
leaf_value=-0.1041421023507913 -0.013883193293586374 0.009103633612394333 0.17588732474971386 0.079699310965836045 0.049630919247865682 -0.074433504194021227 -0.025296870277573665 -0.075879674237221487 -0.038979668360060227 0.035789488181471825 0.0094758388439291422 0.013216803116457804
leaf_weight=24 20 20 21 25 20 20 36 20 39 20 38 21
leaf_count=24 20 20 21 25 20 20 36 20 39 20 38 21
internal_value=0 0.0256846 0.0833163 -0.00856152 0.00191306 -0.00811094 -0.0147479 -0.033388 -0.00699656 0.00384989 -0.00744061 0.0242279
internal_weight=0 81 41 243 219 194 174 40 154 115 74 41
internal_count=324 81 41 243 219 194 174 40 154 115 74 41
is_linear=0
shrinkage=0.1


Tree=68
num_leaves=12
num_cat=0
split_feature=12 5 0 4 6 11 5 0 6 1 7
split_gain=7.5731 12.9355 5.67034 15.4319 5.92936 5.3133 4.38321 5.53638 5.48121 3.19759 2.48776
threshold=4.7150000000000007 6.9240000000000004 8.1999150000000025 0.67500000000000016 87.950000000000017 394.22500000000008 6.0340000000000007 0.092825000000000019 62.000000000000007 21.500000000000004 2.0547000000000004
decision_type=2 2 2 2 2 2 2 2 2 2 2
left_child=-1 2 4 -4 6 10 7 -2 9 -8 -6
right_child=1 -3 3 -5 5 -7 8 -9 -10 -11 -12
leaf_value=0.047860514161487427 -0.057829139940440658 -0.073689403772354126 0.099753318801522259 -0.015256689475583181 -0.072856522902198462 0.006251660354987339 -0.025170356242193118 0.0068838653274071529 0.048238576795810312 0.024995555076748135 -0.025820021483708513
leaf_weight=30 20 25 20 28 23 27 27 39 39 24 22
leaf_count=30 20 25 20 28 23 27 27 39 39 24 22
internal_value=0 -0.00488373 0.00151085 0.0326641 -0.00525547 -0.0288187 0.00613078 -0.0150527 0.0200178 -0.00156287 -0.0498609
internal_weight=0 294 269 48 221 72 149 59 90 51 45
internal_count=324 294 269 48 221 72 149 59 90 51 45
is_linear=0
shrinkage=0.1


Tree=69
num_leaves=13
num_cat=0
split_feature=0 7 2 11 11 12 6 12 0 6 6 6
split_gain=6.82407 22.0438 7.62107 9.22624 14.0988 12.8318 10.6111 16.3359 3.16582 1.65817 3.95986 3.54801
threshold=15.37645 1.6206000000000003 18.840000000000003 383.30500000000006 387.17000000000002 10.120000000000003 33.800000000000004 7.205000000000001 5.3670950000000008 63.900000000000013 82.700000000000003 92.000000000000014
decision_type=2 2 2 2 2 2 2 2 2 2 2 2
left_child=1 -1 3 5 -5 -3 -6 -8 -7 -9 -11 -12
right_child=-2 2 -4 4 6 8 7 9 -10 10 11 -13
leaf_value=0.10013187270272861 -0.056581051424145705 -0.10813704835250976 0.048909552887082097 0.081565566866047448 0.041134026418957449 0.01294129080294321 -0.091208368740402737 0.016528212206978952 -0.040224747938503114 -0.035231178895466862 0.039123623960074932 -0.018341644476591187
leaf_weight=22 20 20 25 20 36 24 26 31 21 36 21 22
leaf_count=22 20 20 25 20 36 24 26 31 21 36 21 22
internal_value=0 0.00372244 -0.00379887 -0.00892614 0.00209818 -0.0414903 -0.00714221 -0.0199212 -0.0118695 -0.00307153 -0.0107626 0.00972279
internal_weight=0 304 282 257 192 65 172 136 45 110 79 43
internal_count=324 304 282 257 192 65 172 136 45 110 79 43
is_linear=0
shrinkage=0.1


Tree=70
num_leaves=14
num_cat=0
split_feature=3 12 7 7 5 4 6 2 8 12 6 6 7
split_gain=6.46982 8.52796 19.7347 11.5276 4.83106 3.20979 3.3431 3.06427 3.01207 2.86972 2.68841 3.14127 2.0512
threshold=1.0000000180025095e-35 5.9450000000000012 5.6679500000000012 1.5285500000000003 6.6790000000000012 0.69650000000000001 79.450000000000017 13.360000000000001 3.5000000000000004 18.065000000000001 37.000000000000007 68.450000000000017 4.0546500000000014
decision_type=2 2 2 2 2 2 2 2 2 2 2 2 2
left_child=1 2 -1 -3 5 6 8 -8 -5 -9 -10 12 -12
right_child=-2 3 -4 4 -6 -7 7 9 10 -11 11 -13 -14
leaf_value=0.096034965632483371 0.048869654655456542 -0.080612951449372555 -0.032316742869822876 0.040370333753526215 -0.051781827919185168 0.029359820671379568 -0.048310344295376645 0.021607495844364166 0.023867497593164446 -0.031962269842624666 -0.051736561670189807 0.017731182862605371 -0.007537837823232015
leaf_weight=25 25 22 23 20 20 31 28 20 27 20 21 21 21
leaf_count=25 25 22 23 20 20 31 28 20 27 20 21 21 21
internal_value=0 -0.00408609 0.0345331 -0.0114714 -0.00482902 -0.000335929 -0.00550766 -0.022938 0.00526747 -0.00517739 -0.00253317 -0.0138477 -0.0296372
internal_weight=0 299 48 251 229 209 178 68 110 40 90 63 42
internal_count=324 299 48 251 229 209 178 68 110 40 90 63 42
is_linear=0
shrinkage=0.1


Tree=71
num_leaves=14
num_cat=0
split_feature=0 11 11 7 7 12 6 10 7 7 6 5 0
split_gain=6.12807 21.8136 28.9916 19.6777 13.769 7.0649 5.44666 4.99984 7.09572 3.36059 3.98467 1.94233 2.52029
threshold=4.2418500000000003 378.88000000000005 195.16500000000005 1.9310500000000002 2.3853000000000004 4.5500000000000007 96.40000000000002 17.850000000000005 3.4597000000000002 3.0922000000000005 41.300000000000004 6.3505000000000011 0.13570500000000002
decision_type=2 2 2 2 2 2 2 2 2 2 2 2 2
left_child=3 2 -2 -1 -5 -6 -3 9 -9 -7 -11 12 -10
right_child=1 6 -4 4 5 7 -8 8 11 10 -12 -13 -14
leaf_value=-0.093900958821177494 -0.011088483929634095 0.0081820578128099439 0.15714161380061084 0.07132908548414707 -0.062293796826686176 0.054098698031157258 -0.065619406774640093 -0.065453099256212066 -0.035326794798796378 0.034632007062435154 -0.020772585659115404 0.025692973993718629 0.0067470223456621171
leaf_weight=24 20 20 21 25 21 20 20 22 24 25 27 20 35
leaf_count=24 20 20 21 25 21 20 20 22 24 25 27 20 35
internal_value=0 0.0238205 0.0750782 -0.00794015 0.00148021 -0.00752094 -0.0287187 -0.000872206 -0.0152258 0.0192627 0.00586424 -0.00123845 -0.0103678
internal_weight=0 81 41 243 219 194 40 173 101 72 52 79 59
internal_count=324 81 41 243 219 194 40 173 101 72 52 79 59
is_linear=0
shrinkage=0.1


Tree=72
num_leaves=12
num_cat=0
split_feature=7 9 2 10 12 6 0 5 4 7 6
split_gain=6.1778 4.81611 5.24393 5.71866 20.4247 5.02566 3.01672 3.24988 3.7972 3.79351 1.89652
threshold=1.5772500000000003 225.00000000000003 3.4250000000000003 16.500000000000004 6.1800000000000006 37.000000000000007 0.12614500000000003 5.7580000000000009 0.58200000000000007 2.1842500000000005 81.65000000000002
decision_type=2 2 2 2 2 2 2 2 2 2 2
left_child=-1 -2 -3 -4 -5 -6 -7 -8 10 -10 -9
right_child=1 2 3 4 5 6 7 8 9 -11 -12
leaf_value=0.044896373259169717 0.038694931073890382 -0.04986183439139967 0.032797321918848397 -0.10098562677475541 0.045786622081967918 -0.034376233263776222 -0.02666379999718629 0.051006644219160083 0.017338148840973455 -0.033441139717719386 0.0093116062425542632
leaf_weight=28 24 27 37 22 22 29 32 24 31 28 20
leaf_count=28 24 27 37 22 22 29 32 24 31 28 20
internal_value=0 -0.00424695 -0.00803594 -0.00342656 -0.00987023 0.000906858 -0.0051136 0.00117245 0.0098206 -0.0067605 0.0320544
internal_weight=0 296 272 245 208 186 164 135 103 59 44
internal_count=324 296 272 245 208 186 164 135 103 59 44
is_linear=0
shrinkage=0.1


Tree=73
num_leaves=11
num_cat=0
split_feature=12 5 5 0 7 6 7 6 1 12
split_gain=6.93493 9.45209 5.25354 11.6539 4.1306 3.56157 4.08149 3.13619 1.94709 1.59793
threshold=4.7150000000000007 6.8675000000000006 5.7580000000000009 8.1999150000000025 1.6110500000000003 79.450000000000017 2.5136500000000006 60.400000000000013 1.0000000180025095e-35 9.6050000000000022
decision_type=2 2 2 2 2 2 2 2 2 2
left_child=-1 2 4 5 -2 7 -7 8 9 -4
right_child=1 -3 3 -5 -6 6 -8 -9 -10 -11
leaf_value=0.045799602993453543 -0.061021881195760908 -0.061058476015373508 -0.036377469627186652 0.065001502777299575 -0.0054941609602522212 -0.041833502456948564 0.0069370949087897323 0.035559519998390569 0.015964290904147287 0.0031178683042526246
leaf_weight=30 21 27 20 31 37 37 32 33 35 21
leaf_count=30 21 27 20 31 37 37 32 33 35 21
internal_value=0 -0.00467343 0.00102843 0.00841787 -0.025599 -0.00143659 -0.0192153 0.0098178 -0.00135953 -0.0161482
internal_weight=0 294 267 209 58 178 69 109 76 41
internal_count=324 294 267 209 58 178 69 109 76 41
is_linear=0
shrinkage=0.1


Tree=74
num_leaves=12
num_cat=0
split_feature=12 5 0 11 6 5 5 5 7 0 1
split_gain=5.6173 7.67212 4.42016 12.2833 4.65719 4.98253 4.6866 3.47385 5.06156 4.6202 2.10524
threshold=4.7150000000000007 6.9240000000000004 8.1999150000000025 368.65500000000003 87.950000000000017 6.1705000000000014 5.7080000000000011 6.0340000000000007 3.5392000000000006 0.092825000000000019 21.500000000000004
decision_type=2 2 2 2 2 2 2 2 2 2 2
left_child=-1 2 4 -4 7 6 -6 9 -9 -2 -10
right_child=1 -3 3 -5 5 -7 -8 8 10 -11 -12
leaf_value=0.041219643503427508 -0.053099913299083715 -0.057195643126964568 0.08807920852676035 -0.014529671919132984 -0.046299275046303157 -0.068555943556129928 0.014885073828120385 0.048365931980537652 -0.018446093076659786 0.0060166699859576346 0.020139076933264735
leaf_weight=30 20 25 20 28 21 20 31 33 31 39 26
leaf_count=30 20 25 20 28 21 20 31 33 31 39 26
internal_value=0 -0.00420609 0.000718594 0.028224 -0.00525544 -0.0261384 -0.00982399 0.00483567 0.0171985 -0.0140228 -0.00084584
internal_weight=0 294 269 48 221 72 52 149 90 59 57
internal_count=324 294 269 48 221 72 52 149 90 59 57
is_linear=0
shrinkage=0.1


Tree=75
num_leaves=13
num_cat=0
split_feature=6 12 6 7 7 2 7 5 2 7 0 5
split_gain=5.8512 47.6666 9.79184 7.29196 5.86527 9.2403 7.76086 5.40933 3.54878 3.20106 1.82588 1.90006
threshold=88.550000000000011 12.470000000000001 79.450000000000017 1.5285500000000003 6.4726000000000008 4.8950000000000005 7.5250500000000011 6.1705000000000014 6.3050000000000006 1.8671500000000003 0.66008000000000011 6.1335000000000006
decision_type=2 2 2 2 2 2 2 2 2 2 2 2
left_child=2 -2 4 -3 5 -1 -6 9 -7 -5 11 -10
right_child=1 3 -4 7 6 8 -8 -9 10 -11 -12 -13
leaf_value=0.056627089191566816 0.15436978753478756 -0.063731334748722265 -0.055412590169371702 0.049734895168380311 -0.076980745866894726 -0.041259809796299257 0.0090895538895644935 -0.035891402721405029 0.037261845641162084 0.00018330999882891776 -0.018744671149622829 -0.0029601089501132567
leaf_weight=33 21 21 39 22 20 21 22 25 23 32 21 24
leaf_count=33 21 21 39 22 20 21 22 25 23 32 21 24
internal_value=0 0.0174062 -0.0103752 -0.0113561 0.000334969 0.011431 -0.0318963 0.00256644 -0.00532713 0.020371 0.00576973 0.016723
internal_weight=0 121 203 100 164 122 42 79 89 54 68 47
internal_count=324 121 203 100 164 122 42 79 89 54 68 47
is_linear=0
shrinkage=0.1


Tree=76
num_leaves=12
num_cat=0
split_feature=7 10 12 7 12 5 0 12 5 12 5
split_gain=6.17747 4.61805 12.0432 7.74168 16.1043 6.54247 3.94294 2.74744 1.98321 2.92662 1.80044
threshold=1.5175000000000003 17.850000000000005 6.6150000000000011 6.5450500000000007 6.8650000000000011 6.1705000000000014 0.11975500000000001 10.810000000000002 6.1705000000000014 15.775 5.7580000000000009
decision_type=2 2 2 2 2 2 2 2 2 2 2
left_child=-1 3 -3 4 -2 -6 -4 -8 9 -9 -11
right_child=1 2 6 -5 5 -7 7 8 -10 10 -12
leaf_value=0.051159326393495907 0.085168219630916919 -0.080847057748747911 -0.035468287445837632 -0.043134164251387122 0.026791292817021414 -0.041061211129029593 0.031456947965281354 -0.020099778525764125 -0.022899444763445194 0.0020046678781509403 0.040772857257853387
leaf_weight=22 30 23 32 20 30 27 28 28 36 25 23
leaf_count=22 30 23 32 20 30 27 28 28 36 25 23
internal_value=0 -0.00372684 -0.0128869 0.0129668 0.0258636 -0.00534937 -0.00379926 0.00343938 -0.00356501 0.0055934 0.0205811
internal_weight=0 302 195 107 87 57 172 140 112 76 48
internal_count=324 302 195 107 87 57 172 140 112 76 48
is_linear=0
shrinkage=0.1


Tree=77
num_leaves=13
num_cat=0
split_feature=0 7 11 11 12 6 12 0 5 11 9 4
split_gain=5.50482 18.0044 6.23024 10.9707 10.7532 6.31227 8.17316 5.20623 2.54195 4.71769 4.17349 2.09179
threshold=15.37645 1.6206000000000003 383.30500000000006 387.17000000000002 9.4600000000000026 33.800000000000004 7.205000000000001 2.3735950000000003 6.0890000000000013 395.53000000000003 291.00000000000006 0.57650000000000012
decision_type=2 2 2 2 2 2 2 2 2 2 2 2
left_child=1 -1 4 -4 -3 -5 -7 -6 10 -10 -8 -12
right_child=-2 2 3 5 7 6 8 -9 9 -11 11 -13
leaf_value=0.090473000637509612 -0.050818362906575203 -0.090721625173464424 0.076075976936845119 0.035645982731754587 0.027549557674389619 -0.060791482127926968 -0.05185544910142198 -0.032694466185057537 -0.0064551226269358251 0.051459203203293419 0.026960045043379066 -0.018776069618761541
leaf_weight=22 20 20 20 36 26 27 20 32 39 22 20 20
leaf_count=22 20 20 20 36 26 27 20 32 39 22 20 20
internal_value=0 0.00334331 -0.00345404 0.0057369 -0.0274919 -0.00190865 -0.0110436 -0.00568852 5.72166e-05 0.014432 -0.0145572 0.00409199
internal_weight=0 304 282 204 78 184 148 58 121 61 60 40
internal_count=324 304 282 204 78 184 148 58 121 61 60 40
is_linear=0
shrinkage=0.1


Tree=78
num_leaves=14
num_cat=0
split_feature=3 12 7 7 5 6 4 2 4 4 0 5 9
split_gain=5.4371 7.01218 13.3464 9.33184 3.44376 7.90803 5.97094 3.76345 2.70538 3.54773 2.83862 3.69676 2.10837
threshold=1.0000000180025095e-35 5.9450000000000012 5.6679500000000012 1.5285500000000003 6.1705000000000014 93.100000000000009 0.69650000000000001 5.2550000000000017 0.53500000000000014 0.47800000000000004 0.25371500000000008 5.8815000000000008 394.50000000000006
decision_type=2 2 2 2 2 2 2 2 2 2 2 2 2
left_child=1 2 -1 -3 6 7 8 -6 9 -5 -10 -12 -9
right_child=-2 3 -4 4 5 -7 -8 12 10 -11 11 -13 -14
leaf_value=0.081850646868348129 0.044799868173897271 -0.072651713680137286 -0.023701744429443197 -0.011071712635457517 -0.03272328464128077 -0.065955256441464799 0.056376135256141428 0.035101223349571227 -0.045500206532464789 0.043348729529458549 -0.032274840977042911 0.027128204076804899 -0.0078793700340957871
leaf_weight=25 25 22 23 25 25 26 20 25 22 23 20 22 21
leaf_count=25 25 22 23 25 25 26 20 25 22 23 20 22 21
internal_value=0 -0.00374581 0.0312735 -0.0104427 -0.00446631 -0.0187717 0.00604598 -0.00149322 -0.00294154 0.0150047 -0.0164013 -0.00115896 0.0154796
internal_weight=0 299 48 251 229 97 132 71 112 48 64 42 46
internal_count=324 299 48 251 229 97 132 71 112 48 64 42 46
is_linear=0
shrinkage=0.1


Tree=79
num_leaves=14
num_cat=0
split_feature=7 9 12 12 2 2 6 5 4 5 6 0 6
split_gain=5.86068 4.49184 5.19367 4.66853 3.48692 3.40217 2.91179 4.09778 2.08049 4.2206 2.4352 3.70544 1.94432
threshold=1.5772500000000003 225.00000000000003 5.6900000000000004 7.3550000000000013 4.4400000000000004 4.9400000000000004 43.000000000000007 5.6125000000000007 0.69650000000000001 6.4035000000000011 79.450000000000017 0.29718500000000009 63.900000000000013
decision_type=2 2 2 2 2 2 2 2 2 2 2 2 2
left_child=-1 -2 5 -4 -5 -3 -6 -8 9 10 12 -12 -9
right_child=1 2 3 4 6 -7 7 8 -10 -11 11 -13 -14
leaf_value=0.043728872069290714 0.037334554169986704 -0.012483189254999161 0.0397765143464009 -0.045441122069245297 0.030053101914624375 -0.070112767289392655 -0.0496482077986002 -0.020819487050175667 0.022086843252182006 0.031698002598502417 -0.065216916771605613 -0.0096483528241515168 0.02327494345860032
leaf_weight=28 24 21 24 21 24 20 20 20 30 22 20 30 20
leaf_count=28 24 21 24 21 24 20 20 20 30 22 20 30 20
internal_value=0 -0.00413651 -0.00779573 -0.00197418 -0.00681484 -0.0405952 -0.00245381 -0.00726965 -0.00130083 -0.00756539 -0.0171631 -0.0318758 0.00122773
internal_weight=0 296 272 231 207 41 186 162 142 112 90 50 40
internal_count=324 296 272 231 207 41 186 162 142 112 90 50 40
is_linear=0
shrinkage=0.1


Tree=80
num_leaves=12
num_cat=0
split_feature=6 12 6 7 4 5 8 5 0 7 4
split_gain=4.78888 39.8792 9.22692 6.95699 4.17448 5.81214 6.56345 3.72104 2.79624 2.43809 0.834467
threshold=88.100000000000009 12.200000000000001 79.450000000000017 1.5285500000000003 0.41200000000000003 6.6790000000000012 6.5000000000000009 6.1335000000000006 1.5076700000000003 3.9056500000000005 0.45550000000000007
decision_type=2 2 2 2 2 2 2 2 2 2 2
left_child=2 -2 4 -3 -1 6 9 8 -5 -6 -11
right_child=1 3 -4 7 5 -7 -8 -9 -10 10 -12
leaf_value=-0.039012024098116424 0.14475952610373496 -0.060848074158032742 -0.055416992317057323 -0.0017238170808990686 0.030406046946368677 0.045179129872779035 -0.047749781279036632 -0.023149739741347732 0.045188287831842901 0.0062452666275203232 -0.020124958446249369
leaf_weight=23 20 21 36 27 34 31 26 32 24 30 20
leaf_count=23 20 21 36 27 34 31 26 32 24 30 20
internal_value=0 0.01544 -0.00957283 -0.00942909 0.000490528 0.00693421 -0.00384391 0.00358053 0.0203525 0.00974601 -0.00430282
internal_weight=0 124 200 104 164 141 110 83 51 84 50
internal_count=324 124 200 104 164 141 110 83 51 84 50
is_linear=0
shrinkage=0.1


Tree=81
num_leaves=13
num_cat=0
split_feature=7 11 5 12 7 2 9 0 6 7 5 6
split_gain=5.30687 4.53753 8.6694 8.54304 7.03542 4.10007 6.61178 1.70793 2.21174 2.09009 1.45608 1.23068
threshold=1.5772500000000003 368.65500000000003 7.2450000000000001 4.8150000000000004 2.3144500000000003 3.3900000000000006 274.50000000000006 0.32403500000000002 54.100000000000009 2.1842500000000005 6.1175000000000006 80.350000000000009
decision_type=2 2 2 2 2 2 2 2 2 2 2 2
left_child=-1 4 3 -3 -2 -5 -7 8 -8 -9 -11 -10
right_child=1 2 -4 5 -6 6 7 9 11 10 -12 -13
leaf_value=0.041611500084400177 -0.063660133090512508 -0.066111999582499276 0.064971567392349244 0.045381420236080883 0.0087289362549781806 -0.043584955904225356 0.014236452244222165 0.041254071801900868 -0.035973541731280943 0.024262816607952119 -0.013018459394912829 -0.0024905288657780904
leaf_weight=28 29 20 20 20 25 32 39 25 21 20 22 23
leaf_count=28 29 20 20 20 25 32 39 25 21 20 22 23
internal_value=0 -0.00393622 0.00191239 -0.00376862 -0.0301467 0.00240399 -0.0023188 0.00648465 -0.00310247 0.0183612 0.00473453 -0.0184711
internal_weight=0 296 242 222 54 202 182 150 83 67 42 44
internal_count=324 296 242 222 54 202 182 150 83 67 42 44
is_linear=0
shrinkage=0.1


Tree=82
num_leaves=13
num_cat=0
split_feature=8 12 6 0 0 12 12 7 11 4 6 10
split_gain=4.52046 10.2936 8.12526 10.6724 7.32058 7.06683 5.84069 4.11757 8.48399 1.90857 1.42856 1.27579
threshold=2.5000000000000004 4.7150000000000007 94.850000000000009 4.8848150000000006 1.0513750000000002 16.930000000000003 21.110000000000003 3.9056500000000005 392.79000000000002 0.49100000000000005 46.050000000000004 18.350000000000005
decision_type=2 2 2 2 2 2 2 2 2 2 2 2
left_child=-1 -2 3 4 7 -4 -7 8 -3 10 -9 -10
right_child=1 2 5 -5 -6 6 -8 9 11 -11 -12 -13
